digraph Tree {
node [shape=box, fontname="helvetica"] ;
edge [fontname="helvetica"] ;
0 [label="billing_address <= 2034.0\ngini = 0.094\nsamples = 10000\nvalue = [497, 9503]"] ;
1 [label="billing_address <= 2029.5\ngini = 0.106\nsamples = 4134\nvalue = [231, 3903]"] ;
0 -> 1 [labeldistance=2.5, labelangle=45, headlabel="True"] ;
2 [label="billing_postal <= 32138.5\ngini = 0.105\nsamples = 4133\nvalue = [230, 3903]"] ;
1 -> 2 ;
3 [label="billing_postal <= 32136.0\ngini = 0.177\nsamples = 183\nvalue = [18, 165]"] ;
2 -> 3 ;
4 [label="ip_address <= 47.5\ngini = 0.169\nsamples = 182\nvalue = [17, 165]"] ;
3 -> 4 ;
5 [label="ip_address <= 15.0\ngini = 0.353\nsamples = 35\nvalue = [8, 27]"] ;
4 -> 5 ;
6 [label="gini = 0.0\nsamples = 12\nvalue = [0, 12]"] ;
5 -> 6 ;
7 [label="billing_postal <= 32083.5\ngini = 0.454\nsamples = 23\nvalue = [8, 15]"] ;
5 -> 7 ;
8 [label="ip_address <= 44.5\ngini = 0.36\nsamples = 17\nvalue = [4, 13]"] ;
7 -> 8 ;
9 [label="billing_address <= 707.5\ngini = 0.305\nsamples = 16\nvalue = [3, 13]"] ;
8 -> 9 ;
10 [label="gini = 0.0\nsamples = 8\nvalue = [0, 8]"] ;
9 -> 10 ;
11 [label="billing_address <= 882.5\ngini = 0.469\nsamples = 8\nvalue = [3, 5]"] ;
9 -> 11 ;
12 [label="ip_address <= 40.0\ngini = 0.48\nsamples = 5\nvalue = [3, 2]"] ;
11 -> 12 ;
13 [label="gini = 0.0\nsamples = 3\nvalue = [3, 0]"] ;
12 -> 13 ;
14 [label="gini = 0.0\nsamples = 2\nvalue = [0, 2]"] ;
12 -> 14 ;
15 [label="gini = 0.0\nsamples = 3\nvalue = [0, 3]"] ;
11 -> 15 ;
16 [label="gini = 0.0\nsamples = 1\nvalue = [1, 0]"] ;
8 -> 16 ;
17 [label="ip_address <= 34.0\ngini = 0.444\nsamples = 6\nvalue = [4, 2]"] ;
7 -> 17 ;
18 [label="gini = 0.0\nsamples = 3\nvalue = [3, 0]"] ;
17 -> 18 ;
19 [label="billing_postal <= 32106.0\ngini = 0.444\nsamples = 3\nvalue = [1, 2]"] ;
17 -> 19 ;
20 [label="gini = 0.0\nsamples = 1\nvalue = [1, 0]"] ;
19 -> 20 ;
21 [label="gini = 0.0\nsamples = 2\nvalue = [0, 2]"] ;
19 -> 21 ;
22 [label="billing_postal <= 32124.5\ngini = 0.115\nsamples = 147\nvalue = [9, 138]"] ;
4 -> 22 ;
23 [label="billing_postal <= 32005.0\ngini = 0.077\nsamples = 124\nvalue = [5, 119]"] ;
22 -> 23 ;
24 [label="ip_address <= 118.0\ngini = 0.444\nsamples = 3\nvalue = [1, 2]"] ;
23 -> 24 ;
25 [label="gini = 0.0\nsamples = 1\nvalue = [1, 0]"] ;
24 -> 25 ;
26 [label="gini = 0.0\nsamples = 2\nvalue = [0, 2]"] ;
24 -> 26 ;
27 [label="billing_address <= 65.0\ngini = 0.064\nsamples = 121\nvalue = [4, 117]"] ;
23 -> 27 ;
28 [label="ip_address <= 75.0\ngini = 0.278\nsamples = 6\nvalue = [1, 5]"] ;
27 -> 28 ;
29 [label="gini = 0.0\nsamples = 1\nvalue = [1, 0]"] ;
28 -> 29 ;
30 [label="gini = 0.0\nsamples = 5\nvalue = [0, 5]"] ;
28 -> 30 ;
31 [label="ip_address <= 153.0\ngini = 0.051\nsamples = 115\nvalue = [3, 112]"] ;
27 -> 31 ;
32 [label="gini = 0.0\nsamples = 64\nvalue = [0, 64]"] ;
31 -> 32 ;
33 [label="ip_address <= 161.5\ngini = 0.111\nsamples = 51\nvalue = [3, 48]"] ;
31 -> 33 ;
34 [label="billing_address <= 466.0\ngini = 0.375\nsamples = 8\nvalue = [2, 6]"] ;
33 -> 34 ;
35 [label="gini = 0.0\nsamples = 5\nvalue = [0, 5]"] ;
34 -> 35 ;
36 [label="billing_address <= 868.0\ngini = 0.444\nsamples = 3\nvalue = [2, 1]"] ;
34 -> 36 ;
37 [label="gini = 0.0\nsamples = 2\nvalue = [2, 0]"] ;
36 -> 37 ;
38 [label="gini = 0.0\nsamples = 1\nvalue = [0, 1]"] ;
36 -> 38 ;
39 [label="billing_address <= 328.5\ngini = 0.045\nsamples = 43\nvalue = [1, 42]"] ;
33 -> 39 ;
40 [label="billing_address <= 317.0\ngini = 0.153\nsamples = 12\nvalue = [1, 11]"] ;
39 -> 40 ;
41 [label="gini = 0.0\nsamples = 11\nvalue = [0, 11]"] ;
40 -> 41 ;
42 [label="gini = 0.0\nsamples = 1\nvalue = [1, 0]"] ;
40 -> 42 ;
43 [label="gini = 0.0\nsamples = 31\nvalue = [0, 31]"] ;
39 -> 43 ;
44 [label="billing_postal <= 32128.5\ngini = 0.287\nsamples = 23\nvalue = [4, 19]"] ;
22 -> 44 ;
45 [label="billing_postal <= 32127.5\ngini = 0.48\nsamples = 5\nvalue = [3, 2]"] ;
44 -> 45 ;
46 [label="billing_address <= 314.0\ngini = 0.444\nsamples = 3\nvalue = [1, 2]"] ;
45 -> 46 ;
47 [label="gini = 0.0\nsamples = 1\nvalue = [0, 1]"] ;
46 -> 47 ;
48 [label="email_address <= 0.5\ngini = 0.5\nsamples = 2\nvalue = [1, 1]"] ;
46 -> 48 ;
49 [label="gini = 0.0\nsamples = 1\nvalue = [1, 0]"] ;
48 -> 49 ;
50 [label="gini = 0.0\nsamples = 1\nvalue = [0, 1]"] ;
48 -> 50 ;
51 [label="gini = 0.0\nsamples = 2\nvalue = [2, 0]"] ;
45 -> 51 ;
52 [label="ip_address <= 213.0\ngini = 0.105\nsamples = 18\nvalue = [1, 17]"] ;
44 -> 52 ;
53 [label="gini = 0.0\nsamples = 15\nvalue = [0, 15]"] ;
52 -> 53 ;
54 [label="billing_postal <= 32133.0\ngini = 0.444\nsamples = 3\nvalue = [1, 2]"] ;
52 -> 54 ;
55 [label="gini = 0.0\nsamples = 1\nvalue = [1, 0]"] ;
54 -> 55 ;
56 [label="gini = 0.0\nsamples = 2\nvalue = [0, 2]"] ;
54 -> 56 ;
57 [label="gini = 0.0\nsamples = 1\nvalue = [1, 0]"] ;
3 -> 57 ;
58 [label="billing_postal <= 32187.0\ngini = 0.102\nsamples = 3950\nvalue = [212, 3738]"] ;
2 -> 58 ;
59 [label="gini = 0.0\nsamples = 104\nvalue = [0, 104]"] ;
58 -> 59 ;
60 [label="ip_address <= 177.5\ngini = 0.104\nsamples = 3846\nvalue = [212, 3634]"] ;
58 -> 60 ;
61 [label="ip_address <= 76.5\ngini = 0.112\nsamples = 3013\nvalue = [180, 2833]"] ;
60 -> 61 ;
62 [label="billing_postal <= 32902.0\ngini = 0.088\nsamples = 1301\nvalue = [60, 1241]"] ;
61 -> 62 ;
63 [label="ip_address <= 25.0\ngini = 0.05\nsamples = 348\nvalue = [9, 339]"] ;
62 -> 63 ;
64 [label="billing_postal <= 32581.5\ngini = 0.121\nsamples = 108\nvalue = [7, 101]"] ;
63 -> 64 ;
65 [label="billing_postal <= 32574.5\ngini = 0.19\nsamples = 66\nvalue = [7, 59]"] ;
64 -> 65 ;
66 [label="billing_postal <= 32543.5\ngini = 0.168\nsamples = 65\nvalue = [6, 59]"] ;
65 -> 66 ;
67 [label="billing_postal <= 32208.0\ngini = 0.128\nsamples = 58\nvalue = [4, 54]"] ;
66 -> 67 ;
68 [label="email_address <= 0.5\ngini = 0.375\nsamples = 4\nvalue = [1, 3]"] ;
67 -> 68 ;
69 [label="gini = 0.0\nsamples = 3\nvalue = [0, 3]"] ;
68 -> 69 ;
70 [label="gini = 0.0\nsamples = 1\nvalue = [1, 0]"] ;
68 -> 70 ;
71 [label="billing_postal <= 32391.5\ngini = 0.105\nsamples = 54\nvalue = [3, 51]"] ;
67 -> 71 ;
72 [label="gini = 0.0\nsamples = 24\nvalue = [0, 24]"] ;
71 -> 72 ;
73 [label="billing_postal <= 32409.0\ngini = 0.18\nsamples = 30\nvalue = [3, 27]"] ;
71 -> 73 ;
74 [label="email_address <= 0.5\ngini = 0.444\nsamples = 3\nvalue = [2, 1]"] ;
73 -> 74 ;
75 [label="gini = 0.0\nsamples = 1\nvalue = [0, 1]"] ;
74 -> 75 ;
76 [label="gini = 0.0\nsamples = 2\nvalue = [2, 0]"] ;
74 -> 76 ;
77 [label="billing_address <= 887.5\ngini = 0.071\nsamples = 27\nvalue = [1, 26]"] ;
73 -> 77 ;
78 [label="gini = 0.0\nsamples = 23\nvalue = [0, 23]"] ;
77 -> 78 ;
79 [label="billing_address <= 1110.5\ngini = 0.375\nsamples = 4\nvalue = [1, 3]"] ;
77 -> 79 ;
80 [label="gini = 0.0\nsamples = 1\nvalue = [1, 0]"] ;
79 -> 80 ;
81 [label="gini = 0.0\nsamples = 3\nvalue = [0, 3]"] ;
79 -> 81 ;
82 [label="billing_address <= 526.0\ngini = 0.408\nsamples = 7\nvalue = [2, 5]"] ;
66 -> 82 ;
83 [label="gini = 0.0\nsamples = 2\nvalue = [2, 0]"] ;
82 -> 83 ;
84 [label="gini = 0.0\nsamples = 5\nvalue = [0, 5]"] ;
82 -> 84 ;
85 [label="gini = 0.0\nsamples = 1\nvalue = [1, 0]"] ;
65 -> 85 ;
86 [label="gini = 0.0\nsamples = 42\nvalue = [0, 42]"] ;
64 -> 86 ;
87 [label="billing_postal <= 32356.0\ngini = 0.017\nsamples = 240\nvalue = [2, 238]"] ;
63 -> 87 ;
88 [label="billing_postal <= 32353.0\ngini = 0.083\nsamples = 46\nvalue = [2, 44]"] ;
87 -> 88 ;
89 [label="billing_address <= 323.5\ngini = 0.043\nsamples = 45\nvalue = [1, 44]"] ;
88 -> 89 ;
90 [label="billing_address <= 285.0\ngini = 0.142\nsamples = 13\nvalue = [1, 12]"] ;
89 -> 90 ;
91 [label="gini = 0.0\nsamples = 11\nvalue = [0, 11]"] ;
90 -> 91 ;
92 [label="ip_address <= 40.0\ngini = 0.5\nsamples = 2\nvalue = [1, 1]"] ;
90 -> 92 ;
93 [label="gini = 0.0\nsamples = 1\nvalue = [0, 1]"] ;
92 -> 93 ;
94 [label="gini = 0.0\nsamples = 1\nvalue = [1, 0]"] ;
92 -> 94 ;
95 [label="gini = 0.0\nsamples = 32\nvalue = [0, 32]"] ;
89 -> 95 ;
96 [label="gini = 0.0\nsamples = 1\nvalue = [1, 0]"] ;
88 -> 96 ;
97 [label="gini = 0.0\nsamples = 194\nvalue = [0, 194]"] ;
87 -> 97 ;
98 [label="billing_postal <= 32936.5\ngini = 0.101\nsamples = 953\nvalue = [51, 902]"] ;
62 -> 98 ;
99 [label="ip_address <= 30.0\ngini = 0.444\nsamples = 12\nvalue = [4, 8]"] ;
98 -> 99 ;
100 [label="gini = 0.0\nsamples = 4\nvalue = [0, 4]"] ;
99 -> 100 ;
101 [label="email_address <= 1.5\ngini = 0.5\nsamples = 8\nvalue = [4, 4]"] ;
99 -> 101 ;
102 [label="billing_address <= 492.0\ngini = 0.444\nsamples = 6\nvalue = [2, 4]"] ;
101 -> 102 ;
103 [label="gini = 0.0\nsamples = 3\nvalue = [0, 3]"] ;
102 -> 103 ;
104 [label="billing_address <= 830.0\ngini = 0.444\nsamples = 3\nvalue = [2, 1]"] ;
102 -> 104 ;
105 [label="gini = 0.0\nsamples = 2\nvalue = [2, 0]"] ;
104 -> 105 ;
106 [label="gini = 0.0\nsamples = 1\nvalue = [0, 1]"] ;
104 -> 106 ;
107 [label="gini = 0.0\nsamples = 2\nvalue = [2, 0]"] ;
101 -> 107 ;
108 [label="billing_address <= 121.5\ngini = 0.095\nsamples = 941\nvalue = [47, 894]"] ;
98 -> 108 ;
109 [label="billing_address <= 93.5\ngini = 0.164\nsamples = 100\nvalue = [9, 91]"] ;
108 -> 109 ;
110 [label="billing_postal <= 33509.5\ngini = 0.101\nsamples = 75\nvalue = [4, 71]"] ;
109 -> 110 ;
111 [label="billing_postal <= 33500.5\ngini = 0.298\nsamples = 22\nvalue = [4, 18]"] ;
110 -> 111 ;
112 [label="ip_address <= 3.5\ngini = 0.245\nsamples = 21\nvalue = [3, 18]"] ;
111 -> 112 ;
113 [label="gini = 0.0\nsamples = 1\nvalue = [1, 0]"] ;
112 -> 113 ;
114 [label="email_address <= 0.5\ngini = 0.18\nsamples = 20\nvalue = [2, 18]"] ;
112 -> 114 ;
115 [label="billing_address <= 55.5\ngini = 0.444\nsamples = 6\nvalue = [2, 4]"] ;
114 -> 115 ;
116 [label="billing_address <= 7.5\ngini = 0.444\nsamples = 3\nvalue = [2, 1]"] ;
115 -> 116 ;
117 [label="gini = 0.0\nsamples = 1\nvalue = [0, 1]"] ;
116 -> 117 ;
118 [label="gini = 0.0\nsamples = 2\nvalue = [2, 0]"] ;
116 -> 118 ;
119 [label="gini = 0.0\nsamples = 3\nvalue = [0, 3]"] ;
115 -> 119 ;
120 [label="gini = 0.0\nsamples = 14\nvalue = [0, 14]"] ;
114 -> 120 ;
121 [label="gini = 0.0\nsamples = 1\nvalue = [1, 0]"] ;
111 -> 121 ;
122 [label="gini = 0.0\nsamples = 53\nvalue = [0, 53]"] ;
110 -> 122 ;
123 [label="billing_postal <= 34435.5\ngini = 0.32\nsamples = 25\nvalue = [5, 20]"] ;
109 -> 123 ;
124 [label="billing_address <= 117.0\ngini = 0.18\nsamples = 20\nvalue = [2, 18]"] ;
123 -> 124 ;
125 [label="gini = 0.0\nsamples = 13\nvalue = [0, 13]"] ;
124 -> 125 ;
126 [label="billing_postal <= 33676.0\ngini = 0.408\nsamples = 7\nvalue = [2, 5]"] ;
124 -> 126 ;
127 [label="ip_address <= 26.0\ngini = 0.444\nsamples = 3\nvalue = [2, 1]"] ;
126 -> 127 ;
128 [label="gini = 0.0\nsamples = 1\nvalue = [0, 1]"] ;
127 -> 128 ;
129 [label="gini = 0.0\nsamples = 2\nvalue = [2, 0]"] ;
127 -> 129 ;
130 [label="gini = 0.0\nsamples = 4\nvalue = [0, 4]"] ;
126 -> 130 ;
131 [label="ip_address <= 46.0\ngini = 0.48\nsamples = 5\nvalue = [3, 2]"] ;
123 -> 131 ;
132 [label="gini = 0.0\nsamples = 3\nvalue = [3, 0]"] ;
131 -> 132 ;
133 [label="gini = 0.0\nsamples = 2\nvalue = [0, 2]"] ;
131 -> 133 ;
134 [label="billing_address <= 1491.5\ngini = 0.086\nsamples = 841\nvalue = [38, 803]"] ;
108 -> 134 ;
135 [label="billing_postal <= 33135.5\ngini = 0.081\nsamples = 805\nvalue = [34, 771]"] ;
134 -> 135 ;
136 [label="gini = 0.0\nsamples = 77\nvalue = [0, 77]"] ;
135 -> 136 ;
137 [label="billing_postal <= 34075.0\ngini = 0.089\nsamples = 728\nvalue = [34, 694]"] ;
135 -> 137 ;
138 [label="billing_postal <= 33940.5\ngini = 0.118\nsamples = 382\nvalue = [24, 358]"] ;
137 -> 138 ;
139 [label="billing_address <= 429.5\ngini = 0.086\nsamples = 332\nvalue = [15, 317]"] ;
138 -> 139 ;
140 [label="billing_address <= 305.0\ngini = 0.016\nsamples = 128\nvalue = [1, 127]"] ;
139 -> 140 ;
141 [label="gini = 0.0\nsamples = 86\nvalue = [0, 86]"] ;
140 -> 141 ;
142 [label="billing_address <= 306.5\ngini = 0.046\nsamples = 42\nvalue = [1, 41]"] ;
140 -> 142 ;
143 [label="gini = 0.0\nsamples = 1\nvalue = [1, 0]"] ;
142 -> 143 ;
144 [label="gini = 0.0\nsamples = 41\nvalue = [0, 41]"] ;
142 -> 144 ;
145 [label="billing_address <= 436.0\ngini = 0.128\nsamples = 204\nvalue = [14, 190]"] ;
139 -> 145 ;
146 [label="gini = 0.0\nsamples = 1\nvalue = [1, 0]"] ;
145 -> 146 ;
147 [label="billing_postal <= 33136.5\ngini = 0.12\nsamples = 203\nvalue = [13, 190]"] ;
145 -> 147 ;
148 [label="email_address <= 1.5\ngini = 0.444\nsamples = 3\nvalue = [1, 2]"] ;
147 -> 148 ;
149 [label="gini = 0.0\nsamples = 2\nvalue = [0, 2]"] ;
148 -> 149 ;
150 [label="gini = 0.0\nsamples = 1\nvalue = [1, 0]"] ;
148 -> 150 ;
151 [label="billing_address <= 907.0\ngini = 0.113\nsamples = 200\nvalue = [12, 188]"] ;
147 -> 151 ;
152 [label="billing_address <= 899.5\ngini = 0.141\nsamples = 157\nvalue = [12, 145]"] ;
151 -> 152 ;
153 [label="billing_postal <= 33454.5\ngini = 0.131\nsamples = 156\nvalue = [11, 145]"] ;
152 -> 153 ;
154 [label="billing_postal <= 33405.5\ngini = 0.201\nsamples = 53\nvalue = [6, 47]"] ;
153 -> 154 ;
155 [label="billing_address <= 842.5\ngini = 0.049\nsamples = 40\nvalue = [1, 39]"] ;
154 -> 155 ;
156 [label="gini = 0.0\nsamples = 34\nvalue = [0, 34]"] ;
155 -> 156 ;
157 [label="billing_address <= 850.0\ngini = 0.278\nsamples = 6\nvalue = [1, 5]"] ;
155 -> 157 ;
158 [label="gini = 0.0\nsamples = 1\nvalue = [1, 0]"] ;
157 -> 158 ;
159 [label="gini = 0.0\nsamples = 5\nvalue = [0, 5]"] ;
157 -> 159 ;
160 [label="billing_address <= 653.0\ngini = 0.473\nsamples = 13\nvalue = [5, 8]"] ;
154 -> 160 ;
161 [label="ip_address <= 73.5\ngini = 0.278\nsamples = 6\nvalue = [5, 1]"] ;
160 -> 161 ;
162 [label="gini = 0.0\nsamples = 5\nvalue = [5, 0]"] ;
161 -> 162 ;
163 [label="gini = 0.0\nsamples = 1\nvalue = [0, 1]"] ;
161 -> 163 ;
164 [label="gini = 0.0\nsamples = 7\nvalue = [0, 7]"] ;
160 -> 164 ;
165 [label="billing_address <= 881.0\ngini = 0.092\nsamples = 103\nvalue = [5, 98]"] ;
153 -> 165 ;
166 [label="billing_postal <= 33712.0\ngini = 0.077\nsamples = 100\nvalue = [4, 96]"] ;
165 -> 166 ;
167 [label="gini = 0.0\nsamples = 62\nvalue = [0, 62]"] ;
166 -> 167 ;
168 [label="billing_postal <= 33721.5\ngini = 0.188\nsamples = 38\nvalue = [4, 34]"] ;
166 -> 168 ;
169 [label="gini = 0.0\nsamples = 2\nvalue = [2, 0]"] ;
168 -> 169 ;
170 [label="billing_address <= 731.5\ngini = 0.105\nsamples = 36\nvalue = [2, 34]"] ;
168 -> 170 ;
171 [label="gini = 0.0\nsamples = 24\nvalue = [0, 24]"] ;
170 -> 171 ;
172 [label="billing_address <= 737.5\ngini = 0.278\nsamples = 12\nvalue = [2, 10]"] ;
170 -> 172 ;
173 [label="gini = 0.0\nsamples = 1\nvalue = [1, 0]"] ;
172 -> 173 ;
174 [label="ip_address <= 31.5\ngini = 0.165\nsamples = 11\nvalue = [1, 10]"] ;
172 -> 174 ;
175 [label="ip_address <= 26.0\ngini = 0.444\nsamples = 3\nvalue = [1, 2]"] ;
174 -> 175 ;
176 [label="gini = 0.0\nsamples = 2\nvalue = [0, 2]"] ;
175 -> 176 ;
177 [label="gini = 0.0\nsamples = 1\nvalue = [1, 0]"] ;
175 -> 177 ;
178 [label="gini = 0.0\nsamples = 8\nvalue = [0, 8]"] ;
174 -> 178 ;
179 [label="billing_address <= 886.0\ngini = 0.444\nsamples = 3\nvalue = [1, 2]"] ;
165 -> 179 ;
180 [label="gini = 0.0\nsamples = 1\nvalue = [1, 0]"] ;
179 -> 180 ;
181 [label="gini = 0.0\nsamples = 2\nvalue = [0, 2]"] ;
179 -> 181 ;
182 [label="gini = 0.0\nsamples = 1\nvalue = [1, 0]"] ;
152 -> 182 ;
183 [label="gini = 0.0\nsamples = 43\nvalue = [0, 43]"] ;
151 -> 183 ;
184 [label="billing_postal <= 33954.5\ngini = 0.295\nsamples = 50\nvalue = [9, 41]"] ;
138 -> 184 ;
185 [label="ip_address <= 11.0\ngini = 0.444\nsamples = 3\nvalue = [2, 1]"] ;
184 -> 185 ;
186 [label="gini = 0.0\nsamples = 1\nvalue = [0, 1]"] ;
185 -> 186 ;
187 [label="gini = 0.0\nsamples = 2\nvalue = [2, 0]"] ;
185 -> 187 ;
188 [label="billing_address <= 579.5\ngini = 0.254\nsamples = 47\nvalue = [7, 40]"] ;
184 -> 188 ;
189 [label="billing_address <= 251.0\ngini = 0.375\nsamples = 24\nvalue = [6, 18]"] ;
188 -> 189 ;
190 [label="gini = 0.0\nsamples = 8\nvalue = [0, 8]"] ;
189 -> 190 ;
191 [label="billing_address <= 381.5\ngini = 0.469\nsamples = 16\nvalue = [6, 10]"] ;
189 -> 191 ;
192 [label="ip_address <= 65.0\ngini = 0.32\nsamples = 5\nvalue = [4, 1]"] ;
191 -> 192 ;
193 [label="gini = 0.0\nsamples = 4\nvalue = [4, 0]"] ;
192 -> 193 ;
194 [label="gini = 0.0\nsamples = 1\nvalue = [0, 1]"] ;
192 -> 194 ;
195 [label="billing_address <= 554.5\ngini = 0.298\nsamples = 11\nvalue = [2, 9]"] ;
191 -> 195 ;
196 [label="email_address <= 0.5\ngini = 0.18\nsamples = 10\nvalue = [1, 9]"] ;
195 -> 196 ;
197 [label="ip_address <= 46.0\ngini = 0.444\nsamples = 3\nvalue = [1, 2]"] ;
196 -> 197 ;
198 [label="gini = 0.0\nsamples = 1\nvalue = [1, 0]"] ;
197 -> 198 ;
199 [label="gini = 0.0\nsamples = 2\nvalue = [0, 2]"] ;
197 -> 199 ;
200 [label="gini = 0.0\nsamples = 7\nvalue = [0, 7]"] ;
196 -> 200 ;
201 [label="gini = 0.0\nsamples = 1\nvalue = [1, 0]"] ;
195 -> 201 ;
202 [label="ip_address <= 68.5\ngini = 0.083\nsamples = 23\nvalue = [1, 22]"] ;
188 -> 202 ;
203 [label="gini = 0.0\nsamples = 22\nvalue = [0, 22]"] ;
202 -> 203 ;
204 [label="gini = 0.0\nsamples = 1\nvalue = [1, 0]"] ;
202 -> 204 ;
205 [label="billing_address <= 280.0\ngini = 0.056\nsamples = 346\nvalue = [10, 336]"] ;
137 -> 205 ;
206 [label="billing_address <= 277.5\ngini = 0.128\nsamples = 58\nvalue = [4, 54]"] ;
205 -> 206 ;
207 [label="ip_address <= 45.5\ngini = 0.101\nsamples = 56\nvalue = [3, 53]"] ;
206 -> 207 ;
208 [label="ip_address <= 42.5\ngini = 0.157\nsamples = 35\nvalue = [3, 32]"] ;
207 -> 208 ;
209 [label="billing_address <= 250.0\ngini = 0.061\nsamples = 32\nvalue = [1, 31]"] ;
208 -> 209 ;
210 [label="gini = 0.0\nsamples = 27\nvalue = [0, 27]"] ;
209 -> 210 ;
211 [label="billing_address <= 259.5\ngini = 0.32\nsamples = 5\nvalue = [1, 4]"] ;
209 -> 211 ;
212 [label="gini = 0.0\nsamples = 1\nvalue = [1, 0]"] ;
211 -> 212 ;
213 [label="gini = 0.0\nsamples = 4\nvalue = [0, 4]"] ;
211 -> 213 ;
214 [label="billing_address <= 227.5\ngini = 0.444\nsamples = 3\nvalue = [2, 1]"] ;
208 -> 214 ;
215 [label="gini = 0.0\nsamples = 2\nvalue = [2, 0]"] ;
214 -> 215 ;
216 [label="gini = 0.0\nsamples = 1\nvalue = [0, 1]"] ;
214 -> 216 ;
217 [label="gini = 0.0\nsamples = 21\nvalue = [0, 21]"] ;
207 -> 217 ;
218 [label="billing_postal <= 34527.0\ngini = 0.5\nsamples = 2\nvalue = [1, 1]"] ;
206 -> 218 ;
219 [label="gini = 0.0\nsamples = 1\nvalue = [0, 1]"] ;
218 -> 219 ;
220 [label="gini = 0.0\nsamples = 1\nvalue = [1, 0]"] ;
218 -> 220 ;
221 [label="billing_address <= 981.5\ngini = 0.041\nsamples = 288\nvalue = [6, 282]"] ;
205 -> 221 ;
222 [label="billing_postal <= 34502.0\ngini = 0.03\nsamples = 267\nvalue = [4, 263]"] ;
221 -> 222 ;
223 [label="gini = 0.0\nsamples = 121\nvalue = [0, 121]"] ;
222 -> 223 ;
224 [label="billing_postal <= 34505.5\ngini = 0.053\nsamples = 146\nvalue = [4, 142]"] ;
222 -> 224 ;
225 [label="gini = 0.0\nsamples = 1\nvalue = [1, 0]"] ;
224 -> 225 ;
226 [label="ip_address <= 64.0\ngini = 0.041\nsamples = 145\nvalue = [3, 142]"] ;
224 -> 226 ;
227 [label="ip_address <= 14.5\ngini = 0.017\nsamples = 120\nvalue = [1, 119]"] ;
226 -> 227 ;
228 [label="ip_address <= 13.0\ngini = 0.069\nsamples = 28\nvalue = [1, 27]"] ;
227 -> 228 ;
229 [label="gini = 0.0\nsamples = 26\nvalue = [0, 26]"] ;
228 -> 229 ;
230 [label="email_address <= 1.5\ngini = 0.5\nsamples = 2\nvalue = [1, 1]"] ;
228 -> 230 ;
231 [label="gini = 0.0\nsamples = 1\nvalue = [1, 0]"] ;
230 -> 231 ;
232 [label="gini = 0.0\nsamples = 1\nvalue = [0, 1]"] ;
230 -> 232 ;
233 [label="gini = 0.0\nsamples = 92\nvalue = [0, 92]"] ;
227 -> 233 ;
234 [label="billing_postal <= 34700.0\ngini = 0.147\nsamples = 25\nvalue = [2, 23]"] ;
226 -> 234 ;
235 [label="billing_postal <= 34685.0\ngini = 0.231\nsamples = 15\nvalue = [2, 13]"] ;
234 -> 235 ;
236 [label="billing_address <= 709.5\ngini = 0.133\nsamples = 14\nvalue = [1, 13]"] ;
235 -> 236 ;
237 [label="gini = 0.0\nsamples = 8\nvalue = [0, 8]"] ;
236 -> 237 ;
238 [label="billing_address <= 766.0\ngini = 0.278\nsamples = 6\nvalue = [1, 5]"] ;
236 -> 238 ;
239 [label="gini = 0.0\nsamples = 1\nvalue = [1, 0]"] ;
238 -> 239 ;
240 [label="gini = 0.0\nsamples = 5\nvalue = [0, 5]"] ;
238 -> 240 ;
241 [label="gini = 0.0\nsamples = 1\nvalue = [1, 0]"] ;
235 -> 241 ;
242 [label="gini = 0.0\nsamples = 10\nvalue = [0, 10]"] ;
234 -> 242 ;
243 [label="billing_address <= 989.0\ngini = 0.172\nsamples = 21\nvalue = [2, 19]"] ;
221 -> 243 ;
244 [label="gini = 0.0\nsamples = 1\nvalue = [1, 0]"] ;
243 -> 244 ;
245 [label="ip_address <= 13.5\ngini = 0.095\nsamples = 20\nvalue = [1, 19]"] ;
243 -> 245 ;
246 [label="ip_address <= 12.5\ngini = 0.32\nsamples = 5\nvalue = [1, 4]"] ;
245 -> 246 ;
247 [label="gini = 0.0\nsamples = 4\nvalue = [0, 4]"] ;
246 -> 247 ;
248 [label="gini = 0.0\nsamples = 1\nvalue = [1, 0]"] ;
246 -> 248 ;
249 [label="gini = 0.0\nsamples = 15\nvalue = [0, 15]"] ;
245 -> 249 ;
250 [label="billing_address <= 1506.0\ngini = 0.198\nsamples = 36\nvalue = [4, 32]"] ;
134 -> 250 ;
251 [label="gini = 0.0\nsamples = 1\nvalue = [1, 0]"] ;
250 -> 251 ;
252 [label="billing_address <= 1711.5\ngini = 0.157\nsamples = 35\nvalue = [3, 32]"] ;
250 -> 252 ;
253 [label="billing_postal <= 33112.5\ngini = 0.337\nsamples = 14\nvalue = [3, 11]"] ;
252 -> 253 ;
254 [label="gini = 0.0\nsamples = 1\nvalue = [1, 0]"] ;
253 -> 254 ;
255 [label="billing_address <= 1684.0\ngini = 0.26\nsamples = 13\nvalue = [2, 11]"] ;
253 -> 255 ;
256 [label="billing_postal <= 34263.0\ngini = 0.153\nsamples = 12\nvalue = [1, 11]"] ;
255 -> 256 ;
257 [label="gini = 0.0\nsamples = 8\nvalue = [0, 8]"] ;
256 -> 257 ;
258 [label="billing_postal <= 34402.0\ngini = 0.375\nsamples = 4\nvalue = [1, 3]"] ;
256 -> 258 ;
259 [label="gini = 0.0\nsamples = 1\nvalue = [1, 0]"] ;
258 -> 259 ;
260 [label="gini = 0.0\nsamples = 3\nvalue = [0, 3]"] ;
258 -> 260 ;
261 [label="gini = 0.0\nsamples = 1\nvalue = [1, 0]"] ;
255 -> 261 ;
262 [label="gini = 0.0\nsamples = 21\nvalue = [0, 21]"] ;
252 -> 262 ;
263 [label="billing_postal <= 32238.5\ngini = 0.13\nsamples = 1712\nvalue = [120, 1592]"] ;
61 -> 263 ;
264 [label="billing_postal <= 32221.5\ngini = 0.33\nsamples = 24\nvalue = [5, 19]"] ;
263 -> 264 ;
265 [label="email_address <= 1.5\ngini = 0.111\nsamples = 17\nvalue = [1, 16]"] ;
264 -> 265 ;
266 [label="gini = 0.0\nsamples = 14\nvalue = [0, 14]"] ;
265 -> 266 ;
267 [label="billing_address <= 400.0\ngini = 0.444\nsamples = 3\nvalue = [1, 2]"] ;
265 -> 267 ;
268 [label="gini = 0.0\nsamples = 2\nvalue = [0, 2]"] ;
267 -> 268 ;
269 [label="gini = 0.0\nsamples = 1\nvalue = [1, 0]"] ;
267 -> 269 ;
270 [label="billing_postal <= 32232.0\ngini = 0.49\nsamples = 7\nvalue = [4, 3]"] ;
264 -> 270 ;
271 [label="gini = 0.0\nsamples = 3\nvalue = [3, 0]"] ;
270 -> 271 ;
272 [label="billing_address <= 653.5\ngini = 0.375\nsamples = 4\nvalue = [1, 3]"] ;
270 -> 272 ;
273 [label="gini = 0.0\nsamples = 1\nvalue = [1, 0]"] ;
272 -> 273 ;
274 [label="gini = 0.0\nsamples = 3\nvalue = [0, 3]"] ;
272 -> 274 ;
275 [label="billing_address <= 1600.0\ngini = 0.127\nsamples = 1688\nvalue = [115, 1573]"] ;
263 -> 275 ;
276 [label="billing_address <= 38.5\ngini = 0.121\nsamples = 1623\nvalue = [105, 1518]"] ;
275 -> 276 ;
277 [label="billing_address <= 24.5\ngini = 0.229\nsamples = 53\nvalue = [7, 46]"] ;
276 -> 277 ;
278 [label="email_address <= 0.5\ngini = 0.102\nsamples = 37\nvalue = [2, 35]"] ;
277 -> 278 ;
279 [label="billing_postal <= 32904.0\ngini = 0.245\nsamples = 14\nvalue = [2, 12]"] ;
278 -> 279 ;
280 [label="ip_address <= 127.5\ngini = 0.5\nsamples = 2\nvalue = [1, 1]"] ;
279 -> 280 ;
281 [label="gini = 0.0\nsamples = 1\nvalue = [1, 0]"] ;
280 -> 281 ;
282 [label="gini = 0.0\nsamples = 1\nvalue = [0, 1]"] ;
280 -> 282 ;
283 [label="ip_address <= 151.5\ngini = 0.153\nsamples = 12\nvalue = [1, 11]"] ;
279 -> 283 ;
284 [label="gini = 0.0\nsamples = 8\nvalue = [0, 8]"] ;
283 -> 284 ;
285 [label="ip_address <= 161.5\ngini = 0.375\nsamples = 4\nvalue = [1, 3]"] ;
283 -> 285 ;
286 [label="gini = 0.0\nsamples = 1\nvalue = [1, 0]"] ;
285 -> 286 ;
287 [label="gini = 0.0\nsamples = 3\nvalue = [0, 3]"] ;
285 -> 287 ;
288 [label="gini = 0.0\nsamples = 23\nvalue = [0, 23]"] ;
278 -> 288 ;
289 [label="ip_address <= 150.5\ngini = 0.43\nsamples = 16\nvalue = [5, 11]"] ;
277 -> 289 ;
290 [label="ip_address <= 135.5\ngini = 0.496\nsamples = 11\nvalue = [5, 6]"] ;
289 -> 290 ;
291 [label="ip_address <= 106.0\ngini = 0.444\nsamples = 9\nvalue = [3, 6]"] ;
290 -> 291 ;
292 [label="billing_address <= 33.0\ngini = 0.48\nsamples = 5\nvalue = [3, 2]"] ;
291 -> 292 ;
293 [label="ip_address <= 79.5\ngini = 0.444\nsamples = 3\nvalue = [1, 2]"] ;
292 -> 293 ;
294 [label="gini = 0.0\nsamples = 1\nvalue = [1, 0]"] ;
293 -> 294 ;
295 [label="gini = 0.0\nsamples = 2\nvalue = [0, 2]"] ;
293 -> 295 ;
296 [label="gini = 0.0\nsamples = 2\nvalue = [2, 0]"] ;
292 -> 296 ;
297 [label="gini = 0.0\nsamples = 4\nvalue = [0, 4]"] ;
291 -> 297 ;
298 [label="gini = 0.0\nsamples = 2\nvalue = [2, 0]"] ;
290 -> 298 ;
299 [label="gini = 0.0\nsamples = 5\nvalue = [0, 5]"] ;
289 -> 299 ;
300 [label="billing_address <= 186.5\ngini = 0.117\nsamples = 1570\nvalue = [98, 1472]"] ;
276 -> 300 ;
301 [label="ip_address <= 137.5\ngini = 0.066\nsamples = 233\nvalue = [8, 225]"] ;
300 -> 301 ;
302 [label="ip_address <= 92.5\ngini = 0.029\nsamples = 136\nvalue = [2, 134]"] ;
301 -> 302 ;
303 [label="ip_address <= 91.5\ngini = 0.089\nsamples = 43\nvalue = [2, 41]"] ;
302 -> 303 ;
304 [label="billing_postal <= 33205.0\ngini = 0.046\nsamples = 42\nvalue = [1, 41]"] ;
303 -> 304 ;
305 [label="billing_postal <= 33138.5\ngini = 0.124\nsamples = 15\nvalue = [1, 14]"] ;
304 -> 305 ;
306 [label="gini = 0.0\nsamples = 14\nvalue = [0, 14]"] ;
305 -> 306 ;
307 [label="gini = 0.0\nsamples = 1\nvalue = [1, 0]"] ;
305 -> 307 ;
308 [label="gini = 0.0\nsamples = 27\nvalue = [0, 27]"] ;
304 -> 308 ;
309 [label="gini = 0.0\nsamples = 1\nvalue = [1, 0]"] ;
303 -> 309 ;
310 [label="gini = 0.0\nsamples = 93\nvalue = [0, 93]"] ;
302 -> 310 ;
311 [label="ip_address <= 152.5\ngini = 0.116\nsamples = 97\nvalue = [6, 91]"] ;
301 -> 311 ;
312 [label="billing_postal <= 32959.0\ngini = 0.234\nsamples = 37\nvalue = [5, 32]"] ;
311 -> 312 ;
313 [label="billing_postal <= 32490.0\ngini = 0.444\nsamples = 9\nvalue = [3, 6]"] ;
312 -> 313 ;
314 [label="gini = 0.0\nsamples = 3\nvalue = [0, 3]"] ;
313 -> 314 ;
315 [label="billing_address <= 109.5\ngini = 0.5\nsamples = 6\nvalue = [3, 3]"] ;
313 -> 315 ;
316 [label="gini = 0.0\nsamples = 2\nvalue = [2, 0]"] ;
315 -> 316 ;
317 [label="billing_postal <= 32597.5\ngini = 0.375\nsamples = 4\nvalue = [1, 3]"] ;
315 -> 317 ;
318 [label="gini = 0.0\nsamples = 1\nvalue = [1, 0]"] ;
317 -> 318 ;
319 [label="gini = 0.0\nsamples = 3\nvalue = [0, 3]"] ;
317 -> 319 ;
320 [label="email_address <= 0.5\ngini = 0.133\nsamples = 28\nvalue = [2, 26]"] ;
312 -> 320 ;
321 [label="billing_address <= 66.5\ngini = 0.278\nsamples = 12\nvalue = [2, 10]"] ;
320 -> 321 ;
322 [label="gini = 0.0\nsamples = 5\nvalue = [0, 5]"] ;
321 -> 322 ;
323 [label="ip_address <= 149.0\ngini = 0.408\nsamples = 7\nvalue = [2, 5]"] ;
321 -> 323 ;
324 [label="billing_address <= 68.5\ngini = 0.278\nsamples = 6\nvalue = [1, 5]"] ;
323 -> 324 ;
325 [label="gini = 0.0\nsamples = 1\nvalue = [1, 0]"] ;
324 -> 325 ;
326 [label="gini = 0.0\nsamples = 5\nvalue = [0, 5]"] ;
324 -> 326 ;
327 [label="gini = 0.0\nsamples = 1\nvalue = [1, 0]"] ;
323 -> 327 ;
328 [label="gini = 0.0\nsamples = 16\nvalue = [0, 16]"] ;
320 -> 328 ;
329 [label="billing_address <= 52.0\ngini = 0.033\nsamples = 60\nvalue = [1, 59]"] ;
311 -> 329 ;
330 [label="billing_postal <= 34242.0\ngini = 0.32\nsamples = 5\nvalue = [1, 4]"] ;
329 -> 330 ;
331 [label="gini = 0.0\nsamples = 4\nvalue = [0, 4]"] ;
330 -> 331 ;
332 [label="gini = 0.0\nsamples = 1\nvalue = [1, 0]"] ;
330 -> 332 ;
333 [label="gini = 0.0\nsamples = 55\nvalue = [0, 55]"] ;
329 -> 333 ;
334 [label="billing_address <= 190.0\ngini = 0.126\nsamples = 1337\nvalue = [90, 1247]"] ;
300 -> 334 ;
335 [label="ip_address <= 95.5\ngini = 0.5\nsamples = 4\nvalue = [2, 2]"] ;
334 -> 335 ;
336 [label="gini = 0.0\nsamples = 1\nvalue = [0, 1]"] ;
335 -> 336 ;
337 [label="billing_postal <= 32931.5\ngini = 0.444\nsamples = 3\nvalue = [2, 1]"] ;
335 -> 337 ;
338 [label="gini = 0.0\nsamples = 1\nvalue = [0, 1]"] ;
337 -> 338 ;
339 [label="gini = 0.0\nsamples = 2\nvalue = [2, 0]"] ;
337 -> 339 ;
340 [label="ip_address <= 78.5\ngini = 0.123\nsamples = 1333\nvalue = [88, 1245]"] ;
334 -> 340 ;
341 [label="billing_postal <= 32331.5\ngini = 0.245\nsamples = 35\nvalue = [5, 30]"] ;
340 -> 341 ;
342 [label="billing_postal <= 32273.0\ngini = 0.5\nsamples = 2\nvalue = [1, 1]"] ;
341 -> 342 ;
343 [label="gini = 0.0\nsamples = 1\nvalue = [0, 1]"] ;
342 -> 343 ;
344 [label="gini = 0.0\nsamples = 1\nvalue = [1, 0]"] ;
342 -> 344 ;
345 [label="billing_address <= 755.5\ngini = 0.213\nsamples = 33\nvalue = [4, 29]"] ;
341 -> 345 ;
346 [label="billing_address <= 747.5\ngini = 0.278\nsamples = 24\nvalue = [4, 20]"] ;
345 -> 346 ;
347 [label="email_address <= 1.5\ngini = 0.227\nsamples = 23\nvalue = [3, 20]"] ;
346 -> 347 ;
348 [label="billing_postal <= 34305.5\ngini = 0.117\nsamples = 16\nvalue = [1, 15]"] ;
347 -> 348 ;
349 [label="gini = 0.0\nsamples = 13\nvalue = [0, 13]"] ;
348 -> 349 ;
350 [label="billing_postal <= 34426.5\ngini = 0.444\nsamples = 3\nvalue = [1, 2]"] ;
348 -> 350 ;
351 [label="gini = 0.0\nsamples = 1\nvalue = [1, 0]"] ;
350 -> 351 ;
352 [label="gini = 0.0\nsamples = 2\nvalue = [0, 2]"] ;
350 -> 352 ;
353 [label="billing_postal <= 34014.5\ngini = 0.408\nsamples = 7\nvalue = [2, 5]"] ;
347 -> 353 ;
354 [label="billing_postal <= 33675.0\ngini = 0.48\nsamples = 5\nvalue = [2, 3]"] ;
353 -> 354 ;
355 [label="billing_address <= 551.0\ngini = 0.375\nsamples = 4\nvalue = [1, 3]"] ;
354 -> 355 ;
356 [label="gini = 0.0\nsamples = 2\nvalue = [0, 2]"] ;
355 -> 356 ;
357 [label="billing_address <= 689.5\ngini = 0.5\nsamples = 2\nvalue = [1, 1]"] ;
355 -> 357 ;
358 [label="gini = 0.0\nsamples = 1\nvalue = [1, 0]"] ;
357 -> 358 ;
359 [label="gini = 0.0\nsamples = 1\nvalue = [0, 1]"] ;
357 -> 359 ;
360 [label="gini = 0.0\nsamples = 1\nvalue = [1, 0]"] ;
354 -> 360 ;
361 [label="gini = 0.0\nsamples = 2\nvalue = [0, 2]"] ;
353 -> 361 ;
362 [label="gini = 0.0\nsamples = 1\nvalue = [1, 0]"] ;
346 -> 362 ;
363 [label="gini = 0.0\nsamples = 9\nvalue = [0, 9]"] ;
345 -> 363 ;
364 [label="billing_postal <= 32734.0\ngini = 0.12\nsamples = 1298\nvalue = [83, 1215]"] ;
340 -> 364 ;
365 [label="billing_postal <= 32440.0\ngini = 0.077\nsamples = 250\nvalue = [10, 240]"] ;
364 -> 365 ;
366 [label="billing_postal <= 32435.5\ngini = 0.165\nsamples = 88\nvalue = [8, 80]"] ;
365 -> 366 ;
367 [label="ip_address <= 128.0\ngini = 0.148\nsamples = 87\nvalue = [7, 80]"] ;
366 -> 367 ;
368 [label="billing_address <= 281.5\ngini = 0.048\nsamples = 41\nvalue = [1, 40]"] ;
367 -> 368 ;
369 [label="billing_postal <= 32335.0\ngini = 0.32\nsamples = 5\nvalue = [1, 4]"] ;
368 -> 369 ;
370 [label="billing_postal <= 32280.5\ngini = 0.5\nsamples = 2\nvalue = [1, 1]"] ;
369 -> 370 ;
371 [label="gini = 0.0\nsamples = 1\nvalue = [0, 1]"] ;
370 -> 371 ;
372 [label="gini = 0.0\nsamples = 1\nvalue = [1, 0]"] ;
370 -> 372 ;
373 [label="gini = 0.0\nsamples = 3\nvalue = [0, 3]"] ;
369 -> 373 ;
374 [label="gini = 0.0\nsamples = 36\nvalue = [0, 36]"] ;
368 -> 374 ;
375 [label="ip_address <= 155.5\ngini = 0.227\nsamples = 46\nvalue = [6, 40]"] ;
367 -> 375 ;
376 [label="billing_address <= 225.0\ngini = 0.34\nsamples = 23\nvalue = [5, 18]"] ;
375 -> 376 ;
377 [label="gini = 0.0\nsamples = 1\nvalue = [1, 0]"] ;
376 -> 377 ;
378 [label="billing_address <= 703.5\ngini = 0.298\nsamples = 22\nvalue = [4, 18]"] ;
376 -> 378 ;
379 [label="gini = 0.0\nsamples = 12\nvalue = [0, 12]"] ;
378 -> 379 ;
380 [label="email_address <= 0.5\ngini = 0.48\nsamples = 10\nvalue = [4, 6]"] ;
378 -> 380 ;
381 [label="gini = 0.0\nsamples = 2\nvalue = [2, 0]"] ;
380 -> 381 ;
382 [label="ip_address <= 131.5\ngini = 0.375\nsamples = 8\nvalue = [2, 6]"] ;
380 -> 382 ;
383 [label="gini = 0.0\nsamples = 1\nvalue = [1, 0]"] ;
382 -> 383 ;
384 [label="email_address <= 1.5\ngini = 0.245\nsamples = 7\nvalue = [1, 6]"] ;
382 -> 384 ;
385 [label="gini = 0.0\nsamples = 5\nvalue = [0, 5]"] ;
384 -> 385 ;
386 [label="ip_address <= 142.5\ngini = 0.5\nsamples = 2\nvalue = [1, 1]"] ;
384 -> 386 ;
387 [label="gini = 0.0\nsamples = 1\nvalue = [1, 0]"] ;
386 -> 387 ;
388 [label="gini = 0.0\nsamples = 1\nvalue = [0, 1]"] ;
386 -> 388 ;
389 [label="billing_postal <= 32316.5\ngini = 0.083\nsamples = 23\nvalue = [1, 22]"] ;
375 -> 389 ;
390 [label="ip_address <= 167.0\ngini = 0.245\nsamples = 7\nvalue = [1, 6]"] ;
389 -> 390 ;
391 [label="gini = 0.0\nsamples = 6\nvalue = [0, 6]"] ;
390 -> 391 ;
392 [label="gini = 0.0\nsamples = 1\nvalue = [1, 0]"] ;
390 -> 392 ;
393 [label="gini = 0.0\nsamples = 16\nvalue = [0, 16]"] ;
389 -> 393 ;
394 [label="gini = 0.0\nsamples = 1\nvalue = [1, 0]"] ;
366 -> 394 ;
395 [label="billing_address <= 230.5\ngini = 0.024\nsamples = 162\nvalue = [2, 160]"] ;
365 -> 395 ;
396 [label="billing_address <= 227.5\ngini = 0.278\nsamples = 6\nvalue = [1, 5]"] ;
395 -> 396 ;
397 [label="gini = 0.0\nsamples = 5\nvalue = [0, 5]"] ;
396 -> 397 ;
398 [label="gini = 0.0\nsamples = 1\nvalue = [1, 0]"] ;
396 -> 398 ;
399 [label="billing_postal <= 32522.5\ngini = 0.013\nsamples = 156\nvalue = [1, 155]"] ;
395 -> 399 ;
400 [label="billing_postal <= 32518.0\ngini = 0.041\nsamples = 48\nvalue = [1, 47]"] ;
399 -> 400 ;
401 [label="gini = 0.0\nsamples = 42\nvalue = [0, 42]"] ;
400 -> 401 ;
402 [label="ip_address <= 117.5\ngini = 0.278\nsamples = 6\nvalue = [1, 5]"] ;
400 -> 402 ;
403 [label="billing_address <= 750.5\ngini = 0.5\nsamples = 2\nvalue = [1, 1]"] ;
402 -> 403 ;
404 [label="gini = 0.0\nsamples = 1\nvalue = [1, 0]"] ;
403 -> 404 ;
405 [label="gini = 0.0\nsamples = 1\nvalue = [0, 1]"] ;
403 -> 405 ;
406 [label="gini = 0.0\nsamples = 4\nvalue = [0, 4]"] ;
402 -> 406 ;
407 [label="gini = 0.0\nsamples = 108\nvalue = [0, 108]"] ;
399 -> 407 ;
408 [label="ip_address <= 160.5\ngini = 0.13\nsamples = 1048\nvalue = [73, 975]"] ;
364 -> 408 ;
409 [label="ip_address <= 102.5\ngini = 0.118\nsamples = 877\nvalue = [55, 822]"] ;
408 -> 409 ;
410 [label="billing_postal <= 34872.0\ngini = 0.166\nsamples = 262\nvalue = [24, 238]"] ;
409 -> 410 ;
411 [label="billing_postal <= 32990.0\ngini = 0.157\nsamples = 256\nvalue = [22, 234]"] ;
410 -> 411 ;
412 [label="billing_postal <= 32947.5\ngini = 0.311\nsamples = 26\nvalue = [5, 21]"] ;
411 -> 412 ;
413 [label="billing_postal <= 32749.0\ngini = 0.095\nsamples = 20\nvalue = [1, 19]"] ;
412 -> 413 ;
414 [label="billing_address <= 725.0\ngini = 0.444\nsamples = 3\nvalue = [1, 2]"] ;
413 -> 414 ;
415 [label="gini = 0.0\nsamples = 1\nvalue = [1, 0]"] ;
414 -> 415 ;
416 [label="gini = 0.0\nsamples = 2\nvalue = [0, 2]"] ;
414 -> 416 ;
417 [label="gini = 0.0\nsamples = 17\nvalue = [0, 17]"] ;
413 -> 417 ;
418 [label="billing_address <= 499.5\ngini = 0.444\nsamples = 6\nvalue = [4, 2]"] ;
412 -> 418 ;
419 [label="billing_address <= 327.5\ngini = 0.444\nsamples = 3\nvalue = [1, 2]"] ;
418 -> 419 ;
420 [label="gini = 0.0\nsamples = 1\nvalue = [1, 0]"] ;
419 -> 420 ;
421 [label="gini = 0.0\nsamples = 2\nvalue = [0, 2]"] ;
419 -> 421 ;
422 [label="gini = 0.0\nsamples = 3\nvalue = [3, 0]"] ;
418 -> 422 ;
423 [label="billing_postal <= 33450.5\ngini = 0.137\nsamples = 230\nvalue = [17, 213]"] ;
411 -> 423 ;
424 [label="billing_address <= 319.5\ngini = 0.041\nsamples = 48\nvalue = [1, 47]"] ;
423 -> 424 ;
425 [label="billing_address <= 303.0\ngini = 0.278\nsamples = 6\nvalue = [1, 5]"] ;
424 -> 425 ;
426 [label="gini = 0.0\nsamples = 5\nvalue = [0, 5]"] ;
425 -> 426 ;
427 [label="gini = 0.0\nsamples = 1\nvalue = [1, 0]"] ;
425 -> 427 ;
428 [label="gini = 0.0\nsamples = 42\nvalue = [0, 42]"] ;
424 -> 428 ;
429 [label="billing_postal <= 33452.0\ngini = 0.16\nsamples = 182\nvalue = [16, 166]"] ;
423 -> 429 ;
430 [label="gini = 0.0\nsamples = 1\nvalue = [1, 0]"] ;
429 -> 430 ;
431 [label="ip_address <= 95.5\ngini = 0.152\nsamples = 181\nvalue = [15, 166]"] ;
429 -> 431 ;
432 [label="billing_postal <= 33565.0\ngini = 0.111\nsamples = 135\nvalue = [8, 127]"] ;
431 -> 432 ;
433 [label="billing_postal <= 33548.5\ngini = 0.346\nsamples = 9\nvalue = [2, 7]"] ;
432 -> 433 ;
434 [label="gini = 0.0\nsamples = 7\nvalue = [0, 7]"] ;
433 -> 434 ;
435 [label="gini = 0.0\nsamples = 2\nvalue = [2, 0]"] ;
433 -> 435 ;
436 [label="ip_address <= 89.5\ngini = 0.091\nsamples = 126\nvalue = [6, 120]"] ;
432 -> 436 ;
437 [label="billing_address <= 604.0\ngini = 0.163\nsamples = 67\nvalue = [6, 61]"] ;
436 -> 437 ;
438 [label="gini = 0.0\nsamples = 24\nvalue = [0, 24]"] ;
437 -> 438 ;
439 [label="billing_address <= 624.0\ngini = 0.24\nsamples = 43\nvalue = [6, 37]"] ;
437 -> 439 ;
440 [label="gini = 0.0\nsamples = 1\nvalue = [1, 0]"] ;
439 -> 440 ;
441 [label="billing_postal <= 33885.0\ngini = 0.21\nsamples = 42\nvalue = [5, 37]"] ;
439 -> 441 ;
442 [label="ip_address <= 85.5\ngini = 0.48\nsamples = 5\nvalue = [2, 3]"] ;
441 -> 442 ;
443 [label="gini = 0.0\nsamples = 3\nvalue = [0, 3]"] ;
442 -> 443 ;
444 [label="gini = 0.0\nsamples = 2\nvalue = [2, 0]"] ;
442 -> 444 ;
445 [label="billing_address <= 819.0\ngini = 0.149\nsamples = 37\nvalue = [3, 34]"] ;
441 -> 445 ;
446 [label="billing_address <= 804.0\ngini = 0.305\nsamples = 16\nvalue = [3, 13]"] ;
445 -> 446 ;
447 [label="billing_postal <= 34646.0\ngini = 0.231\nsamples = 15\nvalue = [2, 13]"] ;
446 -> 447 ;
448 [label="gini = 0.0\nsamples = 9\nvalue = [0, 9]"] ;
447 -> 448 ;
449 [label="billing_address <= 741.5\ngini = 0.444\nsamples = 6\nvalue = [2, 4]"] ;
447 -> 449 ;
450 [label="email_address <= 1.5\ngini = 0.444\nsamples = 3\nvalue = [2, 1]"] ;
449 -> 450 ;
451 [label="gini = 0.0\nsamples = 2\nvalue = [2, 0]"] ;
450 -> 451 ;
452 [label="gini = 0.0\nsamples = 1\nvalue = [0, 1]"] ;
450 -> 452 ;
453 [label="gini = 0.0\nsamples = 3\nvalue = [0, 3]"] ;
449 -> 453 ;
454 [label="gini = 0.0\nsamples = 1\nvalue = [1, 0]"] ;
446 -> 454 ;
455 [label="gini = 0.0\nsamples = 21\nvalue = [0, 21]"] ;
445 -> 455 ;
456 [label="gini = 0.0\nsamples = 59\nvalue = [0, 59]"] ;
436 -> 456 ;
457 [label="billing_postal <= 34606.0\ngini = 0.258\nsamples = 46\nvalue = [7, 39]"] ;
431 -> 457 ;
458 [label="billing_postal <= 34441.5\ngini = 0.35\nsamples = 31\nvalue = [7, 24]"] ;
457 -> 458 ;
459 [label="billing_postal <= 34056.0\ngini = 0.26\nsamples = 26\nvalue = [4, 22]"] ;
458 -> 459 ;
460 [label="billing_postal <= 34002.5\ngini = 0.36\nsamples = 17\nvalue = [4, 13]"] ;
459 -> 460 ;
461 [label="billing_address <= 401.5\ngini = 0.305\nsamples = 16\nvalue = [3, 13]"] ;
460 -> 461 ;
462 [label="gini = 0.0\nsamples = 5\nvalue = [0, 5]"] ;
461 -> 462 ;
463 [label="billing_address <= 486.0\ngini = 0.397\nsamples = 11\nvalue = [3, 8]"] ;
461 -> 463 ;
464 [label="gini = 0.0\nsamples = 1\nvalue = [1, 0]"] ;
463 -> 464 ;
465 [label="email_address <= 1.5\ngini = 0.32\nsamples = 10\nvalue = [2, 8]"] ;
463 -> 465 ;
466 [label="gini = 0.0\nsamples = 4\nvalue = [0, 4]"] ;
465 -> 466 ;
467 [label="ip_address <= 98.0\ngini = 0.444\nsamples = 6\nvalue = [2, 4]"] ;
465 -> 467 ;
468 [label="gini = 0.0\nsamples = 1\nvalue = [1, 0]"] ;
467 -> 468 ;
469 [label="billing_postal <= 33686.0\ngini = 0.32\nsamples = 5\nvalue = [1, 4]"] ;
467 -> 469 ;
470 [label="billing_address <= 869.5\ngini = 0.5\nsamples = 2\nvalue = [1, 1]"] ;
469 -> 470 ;
471 [label="gini = 0.0\nsamples = 1\nvalue = [0, 1]"] ;
470 -> 471 ;
472 [label="gini = 0.0\nsamples = 1\nvalue = [1, 0]"] ;
470 -> 472 ;
473 [label="gini = 0.0\nsamples = 3\nvalue = [0, 3]"] ;
469 -> 473 ;
474 [label="gini = 0.0\nsamples = 1\nvalue = [1, 0]"] ;
460 -> 474 ;
475 [label="gini = 0.0\nsamples = 9\nvalue = [0, 9]"] ;
459 -> 475 ;
476 [label="billing_postal <= 34507.5\ngini = 0.48\nsamples = 5\nvalue = [3, 2]"] ;
458 -> 476 ;
477 [label="gini = 0.0\nsamples = 2\nvalue = [2, 0]"] ;
476 -> 477 ;
478 [label="ip_address <= 100.0\ngini = 0.444\nsamples = 3\nvalue = [1, 2]"] ;
476 -> 478 ;
479 [label="gini = 0.0\nsamples = 2\nvalue = [0, 2]"] ;
478 -> 479 ;
480 [label="gini = 0.0\nsamples = 1\nvalue = [1, 0]"] ;
478 -> 480 ;
481 [label="gini = 0.0\nsamples = 15\nvalue = [0, 15]"] ;
457 -> 481 ;
482 [label="billing_address <= 396.0\ngini = 0.444\nsamples = 6\nvalue = [2, 4]"] ;
410 -> 482 ;
483 [label="gini = 0.0\nsamples = 2\nvalue = [2, 0]"] ;
482 -> 483 ;
484 [label="gini = 0.0\nsamples = 4\nvalue = [0, 4]"] ;
482 -> 484 ;
485 [label="billing_address <= 907.5\ngini = 0.096\nsamples = 615\nvalue = [31, 584]"] ;
409 -> 485 ;
486 [label="billing_address <= 659.5\ngini = 0.073\nsamples = 501\nvalue = [19, 482]"] ;
485 -> 486 ;
487 [label="billing_address <= 658.5\ngini = 0.094\nsamples = 342\nvalue = [17, 325]"] ;
486 -> 487 ;
488 [label="billing_address <= 260.0\ngini = 0.09\nsamples = 340\nvalue = [16, 324]"] ;
487 -> 488 ;
489 [label="gini = 0.0\nsamples = 57\nvalue = [0, 57]"] ;
488 -> 489 ;
490 [label="billing_address <= 262.0\ngini = 0.107\nsamples = 283\nvalue = [16, 267]"] ;
488 -> 490 ;
491 [label="billing_postal <= 34657.0\ngini = 0.5\nsamples = 2\nvalue = [1, 1]"] ;
490 -> 491 ;
492 [label="gini = 0.0\nsamples = 1\nvalue = [0, 1]"] ;
491 -> 492 ;
493 [label="gini = 0.0\nsamples = 1\nvalue = [1, 0]"] ;
491 -> 493 ;
494 [label="billing_postal <= 34603.0\ngini = 0.101\nsamples = 281\nvalue = [15, 266]"] ;
490 -> 494 ;
495 [label="billing_postal <= 34593.5\ngini = 0.125\nsamples = 223\nvalue = [15, 208]"] ;
494 -> 495 ;
496 [label="ip_address <= 132.5\ngini = 0.118\nsamples = 222\nvalue = [14, 208]"] ;
495 -> 496 ;
497 [label="ip_address <= 116.5\ngini = 0.053\nsamples = 111\nvalue = [3, 108]"] ;
496 -> 497 ;
498 [label="billing_address <= 619.0\ngini = 0.103\nsamples = 55\nvalue = [3, 52]"] ;
497 -> 498 ;
499 [label="ip_address <= 115.5\ngini = 0.078\nsamples = 49\nvalue = [2, 47]"] ;
498 -> 499 ;
500 [label="billing_address <= 417.5\ngini = 0.044\nsamples = 44\nvalue = [1, 43]"] ;
499 -> 500 ;
501 [label="billing_address <= 394.0\ngini = 0.142\nsamples = 13\nvalue = [1, 12]"] ;
500 -> 501 ;
502 [label="gini = 0.0\nsamples = 12\nvalue = [0, 12]"] ;
501 -> 502 ;
503 [label="gini = 0.0\nsamples = 1\nvalue = [1, 0]"] ;
501 -> 503 ;
504 [label="gini = 0.0\nsamples = 31\nvalue = [0, 31]"] ;
500 -> 504 ;
505 [label="billing_postal <= 33194.0\ngini = 0.32\nsamples = 5\nvalue = [1, 4]"] ;
499 -> 505 ;
506 [label="gini = 0.0\nsamples = 1\nvalue = [1, 0]"] ;
505 -> 506 ;
507 [label="gini = 0.0\nsamples = 4\nvalue = [0, 4]"] ;
505 -> 507 ;
508 [label="billing_address <= 632.5\ngini = 0.278\nsamples = 6\nvalue = [1, 5]"] ;
498 -> 508 ;
509 [label="gini = 0.0\nsamples = 1\nvalue = [1, 0]"] ;
508 -> 509 ;
510 [label="gini = 0.0\nsamples = 5\nvalue = [0, 5]"] ;
508 -> 510 ;
511 [label="gini = 0.0\nsamples = 56\nvalue = [0, 56]"] ;
497 -> 511 ;
512 [label="ip_address <= 138.5\ngini = 0.179\nsamples = 111\nvalue = [11, 100]"] ;
496 -> 512 ;
513 [label="email_address <= 0.5\ngini = 0.351\nsamples = 22\nvalue = [5, 17]"] ;
512 -> 513 ;
514 [label="billing_postal <= 32823.0\ngini = 0.49\nsamples = 7\nvalue = [4, 3]"] ;
513 -> 514 ;
515 [label="gini = 0.0\nsamples = 2\nvalue = [0, 2]"] ;
514 -> 515 ;
516 [label="billing_address <= 600.0\ngini = 0.32\nsamples = 5\nvalue = [4, 1]"] ;
514 -> 516 ;
517 [label="gini = 0.0\nsamples = 4\nvalue = [4, 0]"] ;
516 -> 517 ;
518 [label="gini = 0.0\nsamples = 1\nvalue = [0, 1]"] ;
516 -> 518 ;
519 [label="billing_address <= 296.0\ngini = 0.124\nsamples = 15\nvalue = [1, 14]"] ;
513 -> 519 ;
520 [label="billing_postal <= 33960.0\ngini = 0.5\nsamples = 2\nvalue = [1, 1]"] ;
519 -> 520 ;
521 [label="gini = 0.0\nsamples = 1\nvalue = [1, 0]"] ;
520 -> 521 ;
522 [label="gini = 0.0\nsamples = 1\nvalue = [0, 1]"] ;
520 -> 522 ;
523 [label="gini = 0.0\nsamples = 13\nvalue = [0, 13]"] ;
519 -> 523 ;
524 [label="email_address <= 1.5\ngini = 0.126\nsamples = 89\nvalue = [6, 83]"] ;
512 -> 524 ;
525 [label="ip_address <= 158.5\ngini = 0.033\nsamples = 59\nvalue = [1, 58]"] ;
524 -> 525 ;
526 [label="gini = 0.0\nsamples = 50\nvalue = [0, 50]"] ;
525 -> 526 ;
527 [label="billing_postal <= 33460.5\ngini = 0.198\nsamples = 9\nvalue = [1, 8]"] ;
525 -> 527 ;
528 [label="gini = 0.0\nsamples = 1\nvalue = [1, 0]"] ;
527 -> 528 ;
529 [label="gini = 0.0\nsamples = 8\nvalue = [0, 8]"] ;
527 -> 529 ;
530 [label="billing_address <= 401.5\ngini = 0.278\nsamples = 30\nvalue = [5, 25]"] ;
524 -> 530 ;
531 [label="gini = 0.0\nsamples = 11\nvalue = [0, 11]"] ;
530 -> 531 ;
532 [label="billing_address <= 422.5\ngini = 0.388\nsamples = 19\nvalue = [5, 14]"] ;
530 -> 532 ;
533 [label="gini = 0.0\nsamples = 2\nvalue = [2, 0]"] ;
532 -> 533 ;
534 [label="billing_postal <= 34521.5\ngini = 0.291\nsamples = 17\nvalue = [3, 14]"] ;
532 -> 534 ;
535 [label="billing_address <= 453.0\ngini = 0.219\nsamples = 16\nvalue = [2, 14]"] ;
534 -> 535 ;
536 [label="billing_address <= 436.5\ngini = 0.5\nsamples = 2\nvalue = [1, 1]"] ;
535 -> 536 ;
537 [label="gini = 0.0\nsamples = 1\nvalue = [0, 1]"] ;
536 -> 537 ;
538 [label="gini = 0.0\nsamples = 1\nvalue = [1, 0]"] ;
536 -> 538 ;
539 [label="billing_address <= 616.0\ngini = 0.133\nsamples = 14\nvalue = [1, 13]"] ;
535 -> 539 ;
540 [label="gini = 0.0\nsamples = 11\nvalue = [0, 11]"] ;
539 -> 540 ;
541 [label="billing_address <= 633.5\ngini = 0.444\nsamples = 3\nvalue = [1, 2]"] ;
539 -> 541 ;
542 [label="gini = 0.0\nsamples = 1\nvalue = [1, 0]"] ;
541 -> 542 ;
543 [label="gini = 0.0\nsamples = 2\nvalue = [0, 2]"] ;
541 -> 543 ;
544 [label="gini = 0.0\nsamples = 1\nvalue = [1, 0]"] ;
534 -> 544 ;
545 [label="gini = 0.0\nsamples = 1\nvalue = [1, 0]"] ;
495 -> 545 ;
546 [label="gini = 0.0\nsamples = 58\nvalue = [0, 58]"] ;
494 -> 546 ;
547 [label="email_address <= 1.5\ngini = 0.5\nsamples = 2\nvalue = [1, 1]"] ;
487 -> 547 ;
548 [label="gini = 0.0\nsamples = 1\nvalue = [0, 1]"] ;
547 -> 548 ;
549 [label="gini = 0.0\nsamples = 1\nvalue = [1, 0]"] ;
547 -> 549 ;
550 [label="ip_address <= 156.5\ngini = 0.025\nsamples = 159\nvalue = [2, 157]"] ;
486 -> 550 ;
551 [label="ip_address <= 109.0\ngini = 0.013\nsamples = 150\nvalue = [1, 149]"] ;
550 -> 551 ;
552 [label="ip_address <= 107.5\ngini = 0.071\nsamples = 27\nvalue = [1, 26]"] ;
551 -> 552 ;
553 [label="gini = 0.0\nsamples = 23\nvalue = [0, 23]"] ;
552 -> 553 ;
554 [label="email_address <= 1.5\ngini = 0.375\nsamples = 4\nvalue = [1, 3]"] ;
552 -> 554 ;
555 [label="gini = 0.0\nsamples = 3\nvalue = [0, 3]"] ;
554 -> 555 ;
556 [label="gini = 0.0\nsamples = 1\nvalue = [1, 0]"] ;
554 -> 556 ;
557 [label="gini = 0.0\nsamples = 123\nvalue = [0, 123]"] ;
551 -> 557 ;
558 [label="ip_address <= 157.5\ngini = 0.198\nsamples = 9\nvalue = [1, 8]"] ;
550 -> 558 ;
559 [label="gini = 0.0\nsamples = 1\nvalue = [1, 0]"] ;
558 -> 559 ;
560 [label="gini = 0.0\nsamples = 8\nvalue = [0, 8]"] ;
558 -> 560 ;
561 [label="billing_postal <= 34739.5\ngini = 0.188\nsamples = 114\nvalue = [12, 102]"] ;
485 -> 561 ;
562 [label="billing_address <= 914.5\ngini = 0.152\nsamples = 109\nvalue = [9, 100]"] ;
561 -> 562 ;
563 [label="email_address <= 1.0\ngini = 0.444\nsamples = 3\nvalue = [2, 1]"] ;
562 -> 563 ;
564 [label="gini = 0.0\nsamples = 1\nvalue = [1, 0]"] ;
563 -> 564 ;
565 [label="ip_address <= 144.5\ngini = 0.5\nsamples = 2\nvalue = [1, 1]"] ;
563 -> 565 ;
566 [label="gini = 0.0\nsamples = 1\nvalue = [1, 0]"] ;
565 -> 566 ;
567 [label="gini = 0.0\nsamples = 1\nvalue = [0, 1]"] ;
565 -> 567 ;
568 [label="ip_address <= 106.5\ngini = 0.123\nsamples = 106\nvalue = [7, 99]"] ;
562 -> 568 ;
569 [label="email_address <= 1.5\ngini = 0.42\nsamples = 10\nvalue = [3, 7]"] ;
568 -> 569 ;
570 [label="gini = 0.0\nsamples = 6\nvalue = [0, 6]"] ;
569 -> 570 ;
571 [label="billing_postal <= 33208.0\ngini = 0.375\nsamples = 4\nvalue = [3, 1]"] ;
569 -> 571 ;
572 [label="gini = 0.0\nsamples = 1\nvalue = [0, 1]"] ;
571 -> 572 ;
573 [label="gini = 0.0\nsamples = 3\nvalue = [3, 0]"] ;
571 -> 573 ;
574 [label="ip_address <= 127.0\ngini = 0.08\nsamples = 96\nvalue = [4, 92]"] ;
568 -> 574 ;
575 [label="gini = 0.0\nsamples = 31\nvalue = [0, 31]"] ;
574 -> 575 ;
576 [label="ip_address <= 129.0\ngini = 0.116\nsamples = 65\nvalue = [4, 61]"] ;
574 -> 576 ;
577 [label="gini = 0.0\nsamples = 1\nvalue = [1, 0]"] ;
576 -> 577 ;
578 [label="billing_address <= 972.5\ngini = 0.089\nsamples = 64\nvalue = [3, 61]"] ;
576 -> 578 ;
579 [label="gini = 0.0\nsamples = 26\nvalue = [0, 26]"] ;
578 -> 579 ;
580 [label="billing_address <= 974.5\ngini = 0.145\nsamples = 38\nvalue = [3, 35]"] ;
578 -> 580 ;
581 [label="gini = 0.0\nsamples = 1\nvalue = [1, 0]"] ;
580 -> 581 ;
582 [label="billing_address <= 1128.5\ngini = 0.102\nsamples = 37\nvalue = [2, 35]"] ;
580 -> 582 ;
583 [label="gini = 0.0\nsamples = 16\nvalue = [0, 16]"] ;
582 -> 583 ;
584 [label="billing_address <= 1151.0\ngini = 0.172\nsamples = 21\nvalue = [2, 19]"] ;
582 -> 584 ;
585 [label="gini = 0.0\nsamples = 1\nvalue = [1, 0]"] ;
584 -> 585 ;
586 [label="ip_address <= 146.5\ngini = 0.095\nsamples = 20\nvalue = [1, 19]"] ;
584 -> 586 ;
587 [label="billing_address <= 1410.5\ngini = 0.245\nsamples = 7\nvalue = [1, 6]"] ;
586 -> 587 ;
588 [label="billing_address <= 1246.0\ngini = 0.5\nsamples = 2\nvalue = [1, 1]"] ;
587 -> 588 ;
589 [label="gini = 0.0\nsamples = 1\nvalue = [0, 1]"] ;
588 -> 589 ;
590 [label="gini = 0.0\nsamples = 1\nvalue = [1, 0]"] ;
588 -> 590 ;
591 [label="gini = 0.0\nsamples = 5\nvalue = [0, 5]"] ;
587 -> 591 ;
592 [label="gini = 0.0\nsamples = 13\nvalue = [0, 13]"] ;
586 -> 592 ;
593 [label="ip_address <= 143.0\ngini = 0.48\nsamples = 5\nvalue = [3, 2]"] ;
561 -> 593 ;
594 [label="gini = 0.0\nsamples = 2\nvalue = [2, 0]"] ;
593 -> 594 ;
595 [label="billing_postal <= 34791.0\ngini = 0.444\nsamples = 3\nvalue = [1, 2]"] ;
593 -> 595 ;
596 [label="gini = 0.0\nsamples = 1\nvalue = [1, 0]"] ;
595 -> 596 ;
597 [label="gini = 0.0\nsamples = 2\nvalue = [0, 2]"] ;
595 -> 597 ;
598 [label="billing_postal <= 32918.5\ngini = 0.188\nsamples = 171\nvalue = [18, 153]"] ;
408 -> 598 ;
599 [label="billing_postal <= 32751.5\ngini = 0.494\nsamples = 9\nvalue = [5, 4]"] ;
598 -> 599 ;
600 [label="billing_postal <= 32740.5\ngini = 0.32\nsamples = 5\nvalue = [1, 4]"] ;
599 -> 600 ;
601 [label="gini = 0.0\nsamples = 1\nvalue = [1, 0]"] ;
600 -> 601 ;
602 [label="gini = 0.0\nsamples = 4\nvalue = [0, 4]"] ;
600 -> 602 ;
603 [label="gini = 0.0\nsamples = 4\nvalue = [4, 0]"] ;
599 -> 603 ;
604 [label="billing_postal <= 33449.0\ngini = 0.148\nsamples = 162\nvalue = [13, 149]"] ;
598 -> 604 ;
605 [label="billing_postal <= 33442.5\ngini = 0.26\nsamples = 39\nvalue = [6, 33]"] ;
604 -> 605 ;
606 [label="billing_postal <= 33066.0\ngini = 0.229\nsamples = 38\nvalue = [5, 33]"] ;
605 -> 606 ;
607 [label="gini = 0.0\nsamples = 11\nvalue = [0, 11]"] ;
606 -> 607 ;
608 [label="billing_postal <= 33076.0\ngini = 0.302\nsamples = 27\nvalue = [5, 22]"] ;
606 -> 608 ;
609 [label="gini = 0.0\nsamples = 1\nvalue = [1, 0]"] ;
608 -> 609 ;
610 [label="ip_address <= 173.5\ngini = 0.26\nsamples = 26\nvalue = [4, 22]"] ;
608 -> 610 ;
611 [label="ip_address <= 172.0\ngini = 0.375\nsamples = 16\nvalue = [4, 12]"] ;
610 -> 611 ;
612 [label="billing_postal <= 33233.5\ngini = 0.32\nsamples = 15\nvalue = [3, 12]"] ;
611 -> 612 ;
613 [label="ip_address <= 166.5\ngini = 0.48\nsamples = 5\nvalue = [2, 3]"] ;
612 -> 613 ;
614 [label="gini = 0.0\nsamples = 2\nvalue = [2, 0]"] ;
613 -> 614 ;
615 [label="gini = 0.0\nsamples = 3\nvalue = [0, 3]"] ;
613 -> 615 ;
616 [label="email_address <= 0.5\ngini = 0.18\nsamples = 10\nvalue = [1, 9]"] ;
612 -> 616 ;
617 [label="gini = 0.0\nsamples = 1\nvalue = [1, 0]"] ;
616 -> 617 ;
618 [label="gini = 0.0\nsamples = 9\nvalue = [0, 9]"] ;
616 -> 618 ;
619 [label="gini = 0.0\nsamples = 1\nvalue = [1, 0]"] ;
611 -> 619 ;
620 [label="gini = 0.0\nsamples = 10\nvalue = [0, 10]"] ;
610 -> 620 ;
621 [label="gini = 0.0\nsamples = 1\nvalue = [1, 0]"] ;
605 -> 621 ;
622 [label="billing_address <= 215.0\ngini = 0.107\nsamples = 123\nvalue = [7, 116]"] ;
604 -> 622 ;
623 [label="billing_address <= 210.0\ngini = 0.5\nsamples = 2\nvalue = [1, 1]"] ;
622 -> 623 ;
624 [label="gini = 0.0\nsamples = 1\nvalue = [0, 1]"] ;
623 -> 624 ;
625 [label="gini = 0.0\nsamples = 1\nvalue = [1, 0]"] ;
623 -> 625 ;
626 [label="ip_address <= 175.5\ngini = 0.094\nsamples = 121\nvalue = [6, 115]"] ;
622 -> 626 ;
627 [label="billing_postal <= 33959.0\ngini = 0.071\nsamples = 109\nvalue = [4, 105]"] ;
626 -> 627 ;
628 [label="gini = 0.0\nsamples = 33\nvalue = [0, 33]"] ;
627 -> 628 ;
629 [label="billing_postal <= 33968.0\ngini = 0.1\nsamples = 76\nvalue = [4, 72]"] ;
627 -> 629 ;
630 [label="gini = 0.0\nsamples = 1\nvalue = [1, 0]"] ;
629 -> 630 ;
631 [label="billing_postal <= 34568.5\ngini = 0.077\nsamples = 75\nvalue = [3, 72]"] ;
629 -> 631 ;
632 [label="billing_postal <= 34551.0\ngini = 0.127\nsamples = 44\nvalue = [3, 41]"] ;
631 -> 632 ;
633 [label="billing_address <= 358.0\ngini = 0.089\nsamples = 43\nvalue = [2, 41]"] ;
632 -> 633 ;
634 [label="billing_address <= 335.0\ngini = 0.245\nsamples = 7\nvalue = [1, 6]"] ;
633 -> 634 ;
635 [label="gini = 0.0\nsamples = 6\nvalue = [0, 6]"] ;
634 -> 635 ;
636 [label="gini = 0.0\nsamples = 1\nvalue = [1, 0]"] ;
634 -> 636 ;
637 [label="billing_postal <= 34429.5\ngini = 0.054\nsamples = 36\nvalue = [1, 35]"] ;
633 -> 637 ;
638 [label="gini = 0.0\nsamples = 26\nvalue = [0, 26]"] ;
637 -> 638 ;
639 [label="billing_postal <= 34444.0\ngini = 0.18\nsamples = 10\nvalue = [1, 9]"] ;
637 -> 639 ;
640 [label="gini = 0.0\nsamples = 1\nvalue = [1, 0]"] ;
639 -> 640 ;
641 [label="gini = 0.0\nsamples = 9\nvalue = [0, 9]"] ;
639 -> 641 ;
642 [label="gini = 0.0\nsamples = 1\nvalue = [1, 0]"] ;
632 -> 642 ;
643 [label="gini = 0.0\nsamples = 31\nvalue = [0, 31]"] ;
631 -> 643 ;
644 [label="billing_postal <= 34623.0\ngini = 0.278\nsamples = 12\nvalue = [2, 10]"] ;
626 -> 644 ;
645 [label="gini = 0.0\nsamples = 10\nvalue = [0, 10]"] ;
644 -> 645 ;
646 [label="gini = 0.0\nsamples = 2\nvalue = [2, 0]"] ;
644 -> 646 ;
647 [label="billing_address <= 1623.0\ngini = 0.26\nsamples = 65\nvalue = [10, 55]"] ;
275 -> 647 ;
648 [label="gini = 0.0\nsamples = 2\nvalue = [2, 0]"] ;
647 -> 648 ;
649 [label="billing_postal <= 33392.0\ngini = 0.222\nsamples = 63\nvalue = [8, 55]"] ;
647 -> 649 ;
650 [label="ip_address <= 98.5\ngini = 0.069\nsamples = 28\nvalue = [1, 27]"] ;
649 -> 650 ;
651 [label="billing_postal <= 32694.0\ngini = 0.245\nsamples = 7\nvalue = [1, 6]"] ;
650 -> 651 ;
652 [label="gini = 0.0\nsamples = 1\nvalue = [1, 0]"] ;
651 -> 652 ;
653 [label="gini = 0.0\nsamples = 6\nvalue = [0, 6]"] ;
651 -> 653 ;
654 [label="gini = 0.0\nsamples = 21\nvalue = [0, 21]"] ;
650 -> 654 ;
655 [label="billing_address <= 2014.5\ngini = 0.32\nsamples = 35\nvalue = [7, 28]"] ;
649 -> 655 ;
656 [label="billing_address <= 1931.0\ngini = 0.291\nsamples = 34\nvalue = [6, 28]"] ;
655 -> 656 ;
657 [label="billing_address <= 1920.5\ngini = 0.375\nsamples = 24\nvalue = [6, 18]"] ;
656 -> 657 ;
658 [label="billing_postal <= 33912.0\ngini = 0.34\nsamples = 23\nvalue = [5, 18]"] ;
657 -> 658 ;
659 [label="billing_address <= 1828.0\ngini = 0.49\nsamples = 7\nvalue = [3, 4]"] ;
658 -> 659 ;
660 [label="ip_address <= 134.5\ngini = 0.32\nsamples = 5\nvalue = [1, 4]"] ;
659 -> 660 ;
661 [label="email_address <= 1.5\ngini = 0.5\nsamples = 2\nvalue = [1, 1]"] ;
660 -> 661 ;
662 [label="gini = 0.0\nsamples = 1\nvalue = [0, 1]"] ;
661 -> 662 ;
663 [label="gini = 0.0\nsamples = 1\nvalue = [1, 0]"] ;
661 -> 663 ;
664 [label="gini = 0.0\nsamples = 3\nvalue = [0, 3]"] ;
660 -> 664 ;
665 [label="gini = 0.0\nsamples = 2\nvalue = [2, 0]"] ;
659 -> 665 ;
666 [label="billing_address <= 1679.5\ngini = 0.219\nsamples = 16\nvalue = [2, 14]"] ;
658 -> 666 ;
667 [label="billing_postal <= 34448.0\ngini = 0.5\nsamples = 4\nvalue = [2, 2]"] ;
666 -> 667 ;
668 [label="gini = 0.0\nsamples = 2\nvalue = [0, 2]"] ;
667 -> 668 ;
669 [label="gini = 0.0\nsamples = 2\nvalue = [2, 0]"] ;
667 -> 669 ;
670 [label="gini = 0.0\nsamples = 12\nvalue = [0, 12]"] ;
666 -> 670 ;
671 [label="gini = 0.0\nsamples = 1\nvalue = [1, 0]"] ;
657 -> 671 ;
672 [label="gini = 0.0\nsamples = 10\nvalue = [0, 10]"] ;
656 -> 672 ;
673 [label="gini = 0.0\nsamples = 1\nvalue = [1, 0]"] ;
655 -> 673 ;
674 [label="ip_address <= 214.5\ngini = 0.074\nsamples = 833\nvalue = [32, 801]"] ;
60 -> 674 ;
675 [label="email_address <= 1.5\ngini = 0.056\nsamples = 627\nvalue = [18, 609]"] ;
674 -> 675 ;
676 [label="billing_postal <= 32417.0\ngini = 0.074\nsamples = 418\nvalue = [16, 402]"] ;
675 -> 676 ;
677 [label="billing_postal <= 32406.0\ngini = 0.156\nsamples = 47\nvalue = [4, 43]"] ;
676 -> 677 ;
678 [label="billing_address <= 46.0\ngini = 0.085\nsamples = 45\nvalue = [2, 43]"] ;
677 -> 678 ;
679 [label="gini = 0.0\nsamples = 1\nvalue = [1, 0]"] ;
678 -> 679 ;
680 [label="billing_address <= 910.0\ngini = 0.044\nsamples = 44\nvalue = [1, 43]"] ;
678 -> 680 ;
681 [label="gini = 0.0\nsamples = 36\nvalue = [0, 36]"] ;
680 -> 681 ;
682 [label="billing_address <= 918.0\ngini = 0.219\nsamples = 8\nvalue = [1, 7]"] ;
680 -> 682 ;
683 [label="gini = 0.0\nsamples = 1\nvalue = [1, 0]"] ;
682 -> 683 ;
684 [label="gini = 0.0\nsamples = 7\nvalue = [0, 7]"] ;
682 -> 684 ;
685 [label="gini = 0.0\nsamples = 2\nvalue = [2, 0]"] ;
677 -> 685 ;
686 [label="billing_address <= 804.5\ngini = 0.063\nsamples = 371\nvalue = [12, 359]"] ;
676 -> 686 ;
687 [label="billing_address <= 802.5\ngini = 0.081\nsamples = 282\nvalue = [12, 270]"] ;
686 -> 687 ;
688 [label="ip_address <= 192.5\ngini = 0.075\nsamples = 281\nvalue = [11, 270]"] ;
687 -> 688 ;
689 [label="billing_address <= 137.5\ngini = 0.019\nsamples = 104\nvalue = [1, 103]"] ;
688 -> 689 ;
690 [label="billing_address <= 132.5\ngini = 0.133\nsamples = 14\nvalue = [1, 13]"] ;
689 -> 690 ;
691 [label="gini = 0.0\nsamples = 13\nvalue = [0, 13]"] ;
690 -> 691 ;
692 [label="gini = 0.0\nsamples = 1\nvalue = [1, 0]"] ;
690 -> 692 ;
693 [label="gini = 0.0\nsamples = 90\nvalue = [0, 90]"] ;
689 -> 693 ;
694 [label="billing_address <= 273.0\ngini = 0.107\nsamples = 177\nvalue = [10, 167]"] ;
688 -> 694 ;
695 [label="gini = 0.0\nsamples = 68\nvalue = [0, 68]"] ;
694 -> 695 ;
696 [label="billing_address <= 281.5\ngini = 0.167\nsamples = 109\nvalue = [10, 99]"] ;
694 -> 696 ;
697 [label="gini = 0.0\nsamples = 1\nvalue = [1, 0]"] ;
696 -> 697 ;
698 [label="billing_address <= 548.5\ngini = 0.153\nsamples = 108\nvalue = [9, 99]"] ;
696 -> 698 ;
699 [label="billing_address <= 543.5\ngini = 0.223\nsamples = 47\nvalue = [6, 41]"] ;
698 -> 699 ;
700 [label="billing_postal <= 33198.5\ngini = 0.194\nsamples = 46\nvalue = [5, 41]"] ;
699 -> 700 ;
701 [label="billing_postal <= 33100.0\ngini = 0.375\nsamples = 12\nvalue = [3, 9]"] ;
700 -> 701 ;
702 [label="billing_address <= 363.0\ngini = 0.18\nsamples = 10\nvalue = [1, 9]"] ;
701 -> 702 ;
703 [label="email_address <= 0.5\ngini = 0.5\nsamples = 2\nvalue = [1, 1]"] ;
702 -> 703 ;
704 [label="gini = 0.0\nsamples = 1\nvalue = [0, 1]"] ;
703 -> 704 ;
705 [label="gini = 0.0\nsamples = 1\nvalue = [1, 0]"] ;
703 -> 705 ;
706 [label="gini = 0.0\nsamples = 8\nvalue = [0, 8]"] ;
702 -> 706 ;
707 [label="gini = 0.0\nsamples = 2\nvalue = [2, 0]"] ;
701 -> 707 ;
708 [label="billing_address <= 476.0\ngini = 0.111\nsamples = 34\nvalue = [2, 32]"] ;
700 -> 708 ;
709 [label="gini = 0.0\nsamples = 23\nvalue = [0, 23]"] ;
708 -> 709 ;
710 [label="billing_address <= 489.0\ngini = 0.298\nsamples = 11\nvalue = [2, 9]"] ;
708 -> 710 ;
711 [label="gini = 0.0\nsamples = 1\nvalue = [1, 0]"] ;
710 -> 711 ;
712 [label="billing_postal <= 34591.0\ngini = 0.18\nsamples = 10\nvalue = [1, 9]"] ;
710 -> 712 ;
713 [label="gini = 0.0\nsamples = 8\nvalue = [0, 8]"] ;
712 -> 713 ;
714 [label="billing_postal <= 34797.5\ngini = 0.5\nsamples = 2\nvalue = [1, 1]"] ;
712 -> 714 ;
715 [label="gini = 0.0\nsamples = 1\nvalue = [1, 0]"] ;
714 -> 715 ;
716 [label="gini = 0.0\nsamples = 1\nvalue = [0, 1]"] ;
714 -> 716 ;
717 [label="gini = 0.0\nsamples = 1\nvalue = [1, 0]"] ;
699 -> 717 ;
718 [label="billing_address <= 681.5\ngini = 0.094\nsamples = 61\nvalue = [3, 58]"] ;
698 -> 718 ;
719 [label="gini = 0.0\nsamples = 30\nvalue = [0, 30]"] ;
718 -> 719 ;
720 [label="billing_address <= 689.5\ngini = 0.175\nsamples = 31\nvalue = [3, 28]"] ;
718 -> 720 ;
721 [label="gini = 0.0\nsamples = 1\nvalue = [1, 0]"] ;
720 -> 721 ;
722 [label="ip_address <= 202.0\ngini = 0.124\nsamples = 30\nvalue = [2, 28]"] ;
720 -> 722 ;
723 [label="gini = 0.0\nsamples = 19\nvalue = [0, 19]"] ;
722 -> 723 ;
724 [label="billing_postal <= 32858.0\ngini = 0.298\nsamples = 11\nvalue = [2, 9]"] ;
722 -> 724 ;
725 [label="gini = 0.0\nsamples = 1\nvalue = [1, 0]"] ;
724 -> 725 ;
726 [label="ip_address <= 203.5\ngini = 0.18\nsamples = 10\nvalue = [1, 9]"] ;
724 -> 726 ;
727 [label="billing_postal <= 34172.5\ngini = 0.5\nsamples = 2\nvalue = [1, 1]"] ;
726 -> 727 ;
728 [label="gini = 0.0\nsamples = 1\nvalue = [0, 1]"] ;
727 -> 728 ;
729 [label="gini = 0.0\nsamples = 1\nvalue = [1, 0]"] ;
727 -> 729 ;
730 [label="gini = 0.0\nsamples = 8\nvalue = [0, 8]"] ;
726 -> 730 ;
731 [label="gini = 0.0\nsamples = 1\nvalue = [1, 0]"] ;
687 -> 731 ;
732 [label="gini = 0.0\nsamples = 89\nvalue = [0, 89]"] ;
686 -> 732 ;
733 [label="billing_postal <= 33992.0\ngini = 0.019\nsamples = 209\nvalue = [2, 207]"] ;
675 -> 733 ;
734 [label="gini = 0.0\nsamples = 146\nvalue = [0, 146]"] ;
733 -> 734 ;
735 [label="billing_postal <= 34006.5\ngini = 0.061\nsamples = 63\nvalue = [2, 61]"] ;
733 -> 735 ;
736 [label="gini = 0.0\nsamples = 1\nvalue = [1, 0]"] ;
735 -> 736 ;
737 [label="billing_postal <= 34184.5\ngini = 0.032\nsamples = 62\nvalue = [1, 61]"] ;
735 -> 737 ;
738 [label="billing_postal <= 34178.5\ngini = 0.124\nsamples = 15\nvalue = [1, 14]"] ;
737 -> 738 ;
739 [label="gini = 0.0\nsamples = 14\nvalue = [0, 14]"] ;
738 -> 739 ;
740 [label="gini = 0.0\nsamples = 1\nvalue = [1, 0]"] ;
738 -> 740 ;
741 [label="gini = 0.0\nsamples = 47\nvalue = [0, 47]"] ;
737 -> 741 ;
742 [label="billing_address <= 668.5\ngini = 0.127\nsamples = 206\nvalue = [14, 192]"] ;
674 -> 742 ;
743 [label="billing_postal <= 33059.5\ngini = 0.066\nsamples = 117\nvalue = [4, 113]"] ;
742 -> 743 ;
744 [label="billing_postal <= 33040.5\ngini = 0.157\nsamples = 35\nvalue = [3, 32]"] ;
743 -> 744 ;
745 [label="billing_postal <= 32646.5\ngini = 0.111\nsamples = 34\nvalue = [2, 32]"] ;
744 -> 745 ;
746 [label="gini = 0.0\nsamples = 20\nvalue = [0, 20]"] ;
745 -> 746 ;
747 [label="billing_postal <= 32685.0\ngini = 0.245\nsamples = 14\nvalue = [2, 12]"] ;
745 -> 747 ;
748 [label="gini = 0.0\nsamples = 1\nvalue = [1, 0]"] ;
747 -> 748 ;
749 [label="billing_postal <= 32815.5\ngini = 0.142\nsamples = 13\nvalue = [1, 12]"] ;
747 -> 749 ;
750 [label="gini = 0.0\nsamples = 8\nvalue = [0, 8]"] ;
749 -> 750 ;
751 [label="billing_postal <= 32920.0\ngini = 0.32\nsamples = 5\nvalue = [1, 4]"] ;
749 -> 751 ;
752 [label="gini = 0.0\nsamples = 1\nvalue = [1, 0]"] ;
751 -> 752 ;
753 [label="gini = 0.0\nsamples = 4\nvalue = [0, 4]"] ;
751 -> 753 ;
754 [label="gini = 0.0\nsamples = 1\nvalue = [1, 0]"] ;
744 -> 754 ;
755 [label="billing_address <= 126.5\ngini = 0.024\nsamples = 82\nvalue = [1, 81]"] ;
743 -> 755 ;
756 [label="billing_address <= 106.5\ngini = 0.219\nsamples = 8\nvalue = [1, 7]"] ;
755 -> 756 ;
757 [label="gini = 0.0\nsamples = 7\nvalue = [0, 7]"] ;
756 -> 757 ;
758 [label="gini = 0.0\nsamples = 1\nvalue = [1, 0]"] ;
756 -> 758 ;
759 [label="gini = 0.0\nsamples = 74\nvalue = [0, 74]"] ;
755 -> 759 ;
760 [label="billing_address <= 670.0\ngini = 0.199\nsamples = 89\nvalue = [10, 79]"] ;
742 -> 760 ;
761 [label="gini = 0.0\nsamples = 1\nvalue = [1, 0]"] ;
760 -> 761 ;
762 [label="billing_postal <= 34472.5\ngini = 0.184\nsamples = 88\nvalue = [9, 79]"] ;
760 -> 762 ;
763 [label="billing_postal <= 34397.0\ngini = 0.227\nsamples = 69\nvalue = [9, 60]"] ;
762 -> 763 ;
764 [label="billing_postal <= 33095.5\ngini = 0.208\nsamples = 68\nvalue = [8, 60]"] ;
763 -> 764 ;
765 [label="billing_address <= 1814.0\ngini = 0.069\nsamples = 28\nvalue = [1, 27]"] ;
764 -> 765 ;
766 [label="gini = 0.0\nsamples = 26\nvalue = [0, 26]"] ;
765 -> 766 ;
767 [label="billing_address <= 1985.0\ngini = 0.5\nsamples = 2\nvalue = [1, 1]"] ;
765 -> 767 ;
768 [label="gini = 0.0\nsamples = 1\nvalue = [1, 0]"] ;
767 -> 768 ;
769 [label="gini = 0.0\nsamples = 1\nvalue = [0, 1]"] ;
767 -> 769 ;
770 [label="billing_postal <= 33118.0\ngini = 0.289\nsamples = 40\nvalue = [7, 33]"] ;
764 -> 770 ;
771 [label="gini = 0.0\nsamples = 1\nvalue = [1, 0]"] ;
770 -> 771 ;
772 [label="billing_address <= 944.5\ngini = 0.26\nsamples = 39\nvalue = [6, 33]"] ;
770 -> 772 ;
773 [label="billing_address <= 738.5\ngini = 0.386\nsamples = 23\nvalue = [6, 17]"] ;
772 -> 773 ;
774 [label="gini = 0.0\nsamples = 7\nvalue = [0, 7]"] ;
773 -> 774 ;
775 [label="billing_address <= 770.0\ngini = 0.469\nsamples = 16\nvalue = [6, 10]"] ;
773 -> 775 ;
776 [label="gini = 0.0\nsamples = 2\nvalue = [2, 0]"] ;
775 -> 776 ;
777 [label="billing_postal <= 33785.5\ngini = 0.408\nsamples = 14\nvalue = [4, 10]"] ;
775 -> 777 ;
778 [label="billing_postal <= 33410.5\ngini = 0.444\nsamples = 6\nvalue = [4, 2]"] ;
777 -> 778 ;
779 [label="email_address <= 0.5\ngini = 0.444\nsamples = 3\nvalue = [1, 2]"] ;
778 -> 779 ;
780 [label="ip_address <= 216.5\ngini = 0.5\nsamples = 2\nvalue = [1, 1]"] ;
779 -> 780 ;
781 [label="gini = 0.0\nsamples = 1\nvalue = [0, 1]"] ;
780 -> 781 ;
782 [label="gini = 0.0\nsamples = 1\nvalue = [1, 0]"] ;
780 -> 782 ;
783 [label="gini = 0.0\nsamples = 1\nvalue = [0, 1]"] ;
779 -> 783 ;
784 [label="gini = 0.0\nsamples = 3\nvalue = [3, 0]"] ;
778 -> 784 ;
785 [label="gini = 0.0\nsamples = 8\nvalue = [0, 8]"] ;
777 -> 785 ;
786 [label="gini = 0.0\nsamples = 16\nvalue = [0, 16]"] ;
772 -> 786 ;
787 [label="gini = 0.0\nsamples = 1\nvalue = [1, 0]"] ;
763 -> 787 ;
788 [label="gini = 0.0\nsamples = 19\nvalue = [0, 19]"] ;
762 -> 788 ;
789 [label="gini = 0.0\nsamples = 1\nvalue = [1, 0]"] ;
1 -> 789 ;
790 [label="billing_postal <= 34989.5\ngini = 0.087\nsamples = 5866\nvalue = [266, 5600]"] ;
0 -> 790 [labeldistance=2.5, labelangle=-45, headlabel="False"] ;
791 [label="billing_address <= 4576.0\ngini = 0.086\nsamples = 5859\nvalue = [264, 5595]"] ;
790 -> 791 ;
792 [label="billing_postal <= 34886.0\ngini = 0.056\nsamples = 944\nvalue = [27, 917]"] ;
791 -> 792 ;
793 [label="ip_address <= 221.5\ngini = 0.05\nsamples = 926\nvalue = [24, 902]"] ;
792 -> 793 ;
794 [label="email_address <= 1.5\ngini = 0.047\nsamples = 914\nvalue = [22, 892]"] ;
793 -> 794 ;
795 [label="billing_postal <= 33566.5\ngini = 0.059\nsamples = 587\nvalue = [18, 569]"] ;
794 -> 795 ;
796 [label="billing_postal <= 33558.5\ngini = 0.084\nsamples = 317\nvalue = [14, 303]"] ;
795 -> 796 ;
797 [label="billing_postal <= 32649.0\ngini = 0.079\nsamples = 316\nvalue = [13, 303]"] ;
796 -> 797 ;
798 [label="billing_address <= 4346.0\ngini = 0.016\nsamples = 125\nvalue = [1, 124]"] ;
797 -> 798 ;
799 [label="gini = 0.0\nsamples = 116\nvalue = [0, 116]"] ;
798 -> 799 ;
800 [label="billing_address <= 4351.5\ngini = 0.198\nsamples = 9\nvalue = [1, 8]"] ;
798 -> 800 ;
801 [label="gini = 0.0\nsamples = 1\nvalue = [1, 0]"] ;
800 -> 801 ;
802 [label="gini = 0.0\nsamples = 8\nvalue = [0, 8]"] ;
800 -> 802 ;
803 [label="billing_postal <= 32653.0\ngini = 0.118\nsamples = 191\nvalue = [12, 179]"] ;
797 -> 803 ;
804 [label="gini = 0.0\nsamples = 2\nvalue = [2, 0]"] ;
803 -> 804 ;
805 [label="billing_postal <= 32661.5\ngini = 0.1\nsamples = 189\nvalue = [10, 179]"] ;
803 -> 805 ;
806 [label="ip_address <= 121.0\ngini = 0.444\nsamples = 6\nvalue = [2, 4]"] ;
805 -> 806 ;
807 [label="gini = 0.0\nsamples = 2\nvalue = [2, 0]"] ;
806 -> 807 ;
808 [label="gini = 0.0\nsamples = 4\nvalue = [0, 4]"] ;
806 -> 808 ;
809 [label="billing_address <= 3875.0\ngini = 0.084\nsamples = 183\nvalue = [8, 175]"] ;
805 -> 809 ;
810 [label="billing_address <= 3852.0\ngini = 0.11\nsamples = 137\nvalue = [8, 129]"] ;
809 -> 810 ;
811 [label="ip_address <= 195.5\ngini = 0.085\nsamples = 135\nvalue = [6, 129]"] ;
810 -> 811 ;
812 [label="ip_address <= 16.5\ngini = 0.063\nsamples = 122\nvalue = [4, 118]"] ;
811 -> 812 ;
813 [label="billing_postal <= 33273.5\ngini = 0.219\nsamples = 8\nvalue = [1, 7]"] ;
812 -> 813 ;
814 [label="gini = 0.0\nsamples = 7\nvalue = [0, 7]"] ;
813 -> 814 ;
815 [label="gini = 0.0\nsamples = 1\nvalue = [1, 0]"] ;
813 -> 815 ;
816 [label="billing_postal <= 32957.5\ngini = 0.051\nsamples = 114\nvalue = [3, 111]"] ;
812 -> 816 ;
817 [label="billing_postal <= 32936.5\ngini = 0.114\nsamples = 33\nvalue = [2, 31]"] ;
816 -> 817 ;
818 [label="ip_address <= 180.5\ngini = 0.061\nsamples = 32\nvalue = [1, 31]"] ;
817 -> 818 ;
819 [label="gini = 0.0\nsamples = 27\nvalue = [0, 27]"] ;
818 -> 819 ;
820 [label="billing_address <= 2525.5\ngini = 0.32\nsamples = 5\nvalue = [1, 4]"] ;
818 -> 820 ;
821 [label="gini = 0.0\nsamples = 1\nvalue = [1, 0]"] ;
820 -> 821 ;
822 [label="gini = 0.0\nsamples = 4\nvalue = [0, 4]"] ;
820 -> 822 ;
823 [label="gini = 0.0\nsamples = 1\nvalue = [1, 0]"] ;
817 -> 823 ;
824 [label="ip_address <= 129.0\ngini = 0.024\nsamples = 81\nvalue = [1, 80]"] ;
816 -> 824 ;
825 [label="gini = 0.0\nsamples = 51\nvalue = [0, 51]"] ;
824 -> 825 ;
826 [label="ip_address <= 137.5\ngini = 0.064\nsamples = 30\nvalue = [1, 29]"] ;
824 -> 826 ;
827 [label="gini = 0.0\nsamples = 1\nvalue = [1, 0]"] ;
826 -> 827 ;
828 [label="gini = 0.0\nsamples = 29\nvalue = [0, 29]"] ;
826 -> 828 ;
829 [label="ip_address <= 198.5\ngini = 0.26\nsamples = 13\nvalue = [2, 11]"] ;
811 -> 829 ;
830 [label="gini = 0.0\nsamples = 2\nvalue = [2, 0]"] ;
829 -> 830 ;
831 [label="gini = 0.0\nsamples = 11\nvalue = [0, 11]"] ;
829 -> 831 ;
832 [label="gini = 0.0\nsamples = 2\nvalue = [2, 0]"] ;
810 -> 832 ;
833 [label="gini = 0.0\nsamples = 46\nvalue = [0, 46]"] ;
809 -> 833 ;
834 [label="gini = 0.0\nsamples = 1\nvalue = [1, 0]"] ;
796 -> 834 ;
835 [label="billing_address <= 2238.0\ngini = 0.029\nsamples = 270\nvalue = [4, 266]"] ;
795 -> 835 ;
836 [label="billing_address <= 2236.0\ngini = 0.083\nsamples = 23\nvalue = [1, 22]"] ;
835 -> 836 ;
837 [label="gini = 0.0\nsamples = 22\nvalue = [0, 22]"] ;
836 -> 837 ;
838 [label="gini = 0.0\nsamples = 1\nvalue = [1, 0]"] ;
836 -> 838 ;
839 [label="billing_address <= 3358.0\ngini = 0.024\nsamples = 247\nvalue = [3, 244]"] ;
835 -> 839 ;
840 [label="gini = 0.0\nsamples = 117\nvalue = [0, 117]"] ;
839 -> 840 ;
841 [label="billing_address <= 3363.5\ngini = 0.045\nsamples = 130\nvalue = [3, 127]"] ;
839 -> 841 ;
842 [label="gini = 0.0\nsamples = 2\nvalue = [2, 0]"] ;
841 -> 842 ;
843 [label="billing_address <= 4223.5\ngini = 0.016\nsamples = 128\nvalue = [1, 127]"] ;
841 -> 843 ;
844 [label="gini = 0.0\nsamples = 90\nvalue = [0, 90]"] ;
843 -> 844 ;
845 [label="billing_address <= 4228.5\ngini = 0.051\nsamples = 38\nvalue = [1, 37]"] ;
843 -> 845 ;
846 [label="gini = 0.0\nsamples = 1\nvalue = [1, 0]"] ;
845 -> 846 ;
847 [label="gini = 0.0\nsamples = 37\nvalue = [0, 37]"] ;
845 -> 847 ;
848 [label="ip_address <= 205.5\ngini = 0.024\nsamples = 327\nvalue = [4, 323]"] ;
794 -> 848 ;
849 [label="billing_postal <= 34053.5\ngini = 0.013\nsamples = 309\nvalue = [2, 307]"] ;
848 -> 849 ;
850 [label="gini = 0.0\nsamples = 209\nvalue = [0, 209]"] ;
849 -> 850 ;
851 [label="billing_postal <= 34064.0\ngini = 0.039\nsamples = 100\nvalue = [2, 98]"] ;
849 -> 851 ;
852 [label="billing_address <= 3694.0\ngini = 0.5\nsamples = 2\nvalue = [1, 1]"] ;
851 -> 852 ;
853 [label="gini = 0.0\nsamples = 1\nvalue = [1, 0]"] ;
852 -> 853 ;
854 [label="gini = 0.0\nsamples = 1\nvalue = [0, 1]"] ;
852 -> 854 ;
855 [label="billing_address <= 3791.0\ngini = 0.02\nsamples = 98\nvalue = [1, 97]"] ;
851 -> 855 ;
856 [label="gini = 0.0\nsamples = 67\nvalue = [0, 67]"] ;
855 -> 856 ;
857 [label="billing_address <= 3795.0\ngini = 0.062\nsamples = 31\nvalue = [1, 30]"] ;
855 -> 857 ;
858 [label="gini = 0.0\nsamples = 1\nvalue = [1, 0]"] ;
857 -> 858 ;
859 [label="gini = 0.0\nsamples = 30\nvalue = [0, 30]"] ;
857 -> 859 ;
860 [label="ip_address <= 207.5\ngini = 0.198\nsamples = 18\nvalue = [2, 16]"] ;
848 -> 860 ;
861 [label="billing_address <= 3602.0\ngini = 0.444\nsamples = 3\nvalue = [2, 1]"] ;
860 -> 861 ;
862 [label="gini = 0.0\nsamples = 1\nvalue = [0, 1]"] ;
861 -> 862 ;
863 [label="gini = 0.0\nsamples = 2\nvalue = [2, 0]"] ;
861 -> 863 ;
864 [label="gini = 0.0\nsamples = 15\nvalue = [0, 15]"] ;
860 -> 864 ;
865 [label="billing_address <= 4188.0\ngini = 0.278\nsamples = 12\nvalue = [2, 10]"] ;
793 -> 865 ;
866 [label="email_address <= 1.5\ngini = 0.165\nsamples = 11\nvalue = [1, 10]"] ;
865 -> 866 ;
867 [label="gini = 0.0\nsamples = 9\nvalue = [0, 9]"] ;
866 -> 867 ;
868 [label="billing_postal <= 33726.5\ngini = 0.5\nsamples = 2\nvalue = [1, 1]"] ;
866 -> 868 ;
869 [label="gini = 0.0\nsamples = 1\nvalue = [1, 0]"] ;
868 -> 869 ;
870 [label="gini = 0.0\nsamples = 1\nvalue = [0, 1]"] ;
868 -> 870 ;
871 [label="gini = 0.0\nsamples = 1\nvalue = [1, 0]"] ;
865 -> 871 ;
872 [label="billing_postal <= 34911.0\ngini = 0.278\nsamples = 18\nvalue = [3, 15]"] ;
792 -> 872 ;
873 [label="email_address <= 1.5\ngini = 0.444\nsamples = 3\nvalue = [2, 1]"] ;
872 -> 873 ;
874 [label="gini = 0.0\nsamples = 2\nvalue = [2, 0]"] ;
873 -> 874 ;
875 [label="gini = 0.0\nsamples = 1\nvalue = [0, 1]"] ;
873 -> 875 ;
876 [label="billing_address <= 2612.0\ngini = 0.124\nsamples = 15\nvalue = [1, 14]"] ;
872 -> 876 ;
877 [label="billing_address <= 2440.5\ngini = 0.444\nsamples = 3\nvalue = [1, 2]"] ;
876 -> 877 ;
878 [label="gini = 0.0\nsamples = 2\nvalue = [0, 2]"] ;
877 -> 878 ;
879 [label="gini = 0.0\nsamples = 1\nvalue = [1, 0]"] ;
877 -> 879 ;
880 [label="gini = 0.0\nsamples = 12\nvalue = [0, 12]"] ;
876 -> 880 ;
881 [label="billing_address <= 4582.0\ngini = 0.092\nsamples = 4915\nvalue = [237, 4678]"] ;
791 -> 881 ;
882 [label="gini = 0.0\nsamples = 2\nvalue = [2, 0]"] ;
881 -> 882 ;
883 [label="billing_address <= 8960.5\ngini = 0.091\nsamples = 4913\nvalue = [235, 4678]"] ;
881 -> 883 ;
884 [label="billing_address <= 8831.0\ngini = 0.11\nsamples = 1570\nvalue = [92, 1478]"] ;
883 -> 884 ;
885 [label="billing_postal <= 32246.5\ngini = 0.104\nsamples = 1520\nvalue = [84, 1436]"] ;
884 -> 885 ;
886 [label="billing_postal <= 32087.0\ngini = 0.028\nsamples = 141\nvalue = [2, 139]"] ;
885 -> 886 ;
887 [label="billing_postal <= 32082.5\ngini = 0.117\nsamples = 32\nvalue = [2, 30]"] ;
886 -> 887 ;
888 [label="ip_address <= 36.0\ngini = 0.062\nsamples = 31\nvalue = [1, 30]"] ;
887 -> 888 ;
889 [label="ip_address <= 29.5\ngini = 0.375\nsamples = 4\nvalue = [1, 3]"] ;
888 -> 889 ;
890 [label="gini = 0.0\nsamples = 3\nvalue = [0, 3]"] ;
889 -> 890 ;
891 [label="gini = 0.0\nsamples = 1\nvalue = [1, 0]"] ;
889 -> 891 ;
892 [label="gini = 0.0\nsamples = 27\nvalue = [0, 27]"] ;
888 -> 892 ;
893 [label="gini = 0.0\nsamples = 1\nvalue = [1, 0]"] ;
887 -> 893 ;
894 [label="gini = 0.0\nsamples = 109\nvalue = [0, 109]"] ;
886 -> 894 ;
895 [label="billing_postal <= 32249.5\ngini = 0.112\nsamples = 1379\nvalue = [82, 1297]"] ;
885 -> 895 ;
896 [label="ip_address <= 84.5\ngini = 0.5\nsamples = 4\nvalue = [2, 2]"] ;
895 -> 896 ;
897 [label="gini = 0.0\nsamples = 2\nvalue = [2, 0]"] ;
896 -> 897 ;
898 [label="gini = 0.0\nsamples = 2\nvalue = [0, 2]"] ;
896 -> 898 ;
899 [label="ip_address <= 195.5\ngini = 0.11\nsamples = 1375\nvalue = [80, 1295]"] ;
895 -> 899 ;
900 [label="billing_postal <= 32331.5\ngini = 0.099\nsamples = 1200\nvalue = [63, 1137]"] ;
899 -> 900 ;
901 [label="ip_address <= 11.5\ngini = 0.229\nsamples = 38\nvalue = [5, 33]"] ;
900 -> 901 ;
902 [label="gini = 0.0\nsamples = 2\nvalue = [2, 0]"] ;
901 -> 902 ;
903 [label="billing_postal <= 32329.0\ngini = 0.153\nsamples = 36\nvalue = [3, 33]"] ;
901 -> 903 ;
904 [label="billing_postal <= 32290.5\ngini = 0.108\nsamples = 35\nvalue = [2, 33]"] ;
903 -> 904 ;
905 [label="gini = 0.0\nsamples = 18\nvalue = [0, 18]"] ;
904 -> 905 ;
906 [label="billing_address <= 7080.5\ngini = 0.208\nsamples = 17\nvalue = [2, 15]"] ;
904 -> 906 ;
907 [label="gini = 0.0\nsamples = 8\nvalue = [0, 8]"] ;
906 -> 907 ;
908 [label="billing_address <= 7153.0\ngini = 0.346\nsamples = 9\nvalue = [2, 7]"] ;
906 -> 908 ;
909 [label="gini = 0.0\nsamples = 1\nvalue = [1, 0]"] ;
908 -> 909 ;
910 [label="billing_address <= 7388.5\ngini = 0.219\nsamples = 8\nvalue = [1, 7]"] ;
908 -> 910 ;
911 [label="billing_postal <= 32298.5\ngini = 0.444\nsamples = 3\nvalue = [1, 2]"] ;
910 -> 911 ;
912 [label="gini = 0.0\nsamples = 1\nvalue = [1, 0]"] ;
911 -> 912 ;
913 [label="gini = 0.0\nsamples = 2\nvalue = [0, 2]"] ;
911 -> 913 ;
914 [label="gini = 0.0\nsamples = 5\nvalue = [0, 5]"] ;
910 -> 914 ;
915 [label="gini = 0.0\nsamples = 1\nvalue = [1, 0]"] ;
903 -> 915 ;
916 [label="billing_address <= 4586.5\ngini = 0.095\nsamples = 1162\nvalue = [58, 1104]"] ;
900 -> 916 ;
917 [label="billing_address <= 4584.5\ngini = 0.444\nsamples = 3\nvalue = [1, 2]"] ;
916 -> 917 ;
918 [label="gini = 0.0\nsamples = 2\nvalue = [0, 2]"] ;
917 -> 918 ;
919 [label="gini = 0.0\nsamples = 1\nvalue = [1, 0]"] ;
917 -> 919 ;
920 [label="billing_postal <= 32561.5\ngini = 0.094\nsamples = 1159\nvalue = [57, 1102]"] ;
916 -> 920 ;
921 [label="gini = 0.0\nsamples = 98\nvalue = [0, 98]"] ;
920 -> 921 ;
922 [label="billing_postal <= 32594.5\ngini = 0.102\nsamples = 1061\nvalue = [57, 1004]"] ;
920 -> 922 ;
923 [label="billing_address <= 7957.0\ngini = 0.346\nsamples = 18\nvalue = [4, 14]"] ;
922 -> 923 ;
924 [label="billing_postal <= 32568.5\ngini = 0.231\nsamples = 15\nvalue = [2, 13]"] ;
923 -> 924 ;
925 [label="billing_address <= 6806.5\ngini = 0.5\nsamples = 2\nvalue = [1, 1]"] ;
924 -> 925 ;
926 [label="gini = 0.0\nsamples = 1\nvalue = [1, 0]"] ;
925 -> 926 ;
927 [label="gini = 0.0\nsamples = 1\nvalue = [0, 1]"] ;
925 -> 927 ;
928 [label="billing_postal <= 32583.0\ngini = 0.142\nsamples = 13\nvalue = [1, 12]"] ;
924 -> 928 ;
929 [label="gini = 0.0\nsamples = 8\nvalue = [0, 8]"] ;
928 -> 929 ;
930 [label="billing_address <= 5966.0\ngini = 0.32\nsamples = 5\nvalue = [1, 4]"] ;
928 -> 930 ;
931 [label="gini = 0.0\nsamples = 1\nvalue = [1, 0]"] ;
930 -> 931 ;
932 [label="gini = 0.0\nsamples = 4\nvalue = [0, 4]"] ;
930 -> 932 ;
933 [label="billing_address <= 8525.5\ngini = 0.444\nsamples = 3\nvalue = [2, 1]"] ;
923 -> 933 ;
934 [label="gini = 0.0\nsamples = 2\nvalue = [2, 0]"] ;
933 -> 934 ;
935 [label="gini = 0.0\nsamples = 1\nvalue = [0, 1]"] ;
933 -> 935 ;
936 [label="billing_postal <= 34541.0\ngini = 0.096\nsamples = 1043\nvalue = [53, 990]"] ;
922 -> 936 ;
937 [label="billing_postal <= 34047.0\ngini = 0.087\nsamples = 837\nvalue = [38, 799]"] ;
936 -> 937 ;
938 [label="billing_postal <= 34044.5\ngini = 0.11\nsamples = 619\nvalue = [36, 583]"] ;
937 -> 938 ;
939 [label="billing_address <= 8600.5\ngini = 0.107\nsamples = 618\nvalue = [35, 583]"] ;
938 -> 939 ;
940 [label="ip_address <= 26.5\ngini = 0.097\nsamples = 585\nvalue = [30, 555]"] ;
939 -> 940 ;
941 [label="ip_address <= 25.5\ngini = 0.178\nsamples = 71\nvalue = [7, 64]"] ;
940 -> 941 ;
942 [label="billing_postal <= 32656.5\ngini = 0.157\nsamples = 70\nvalue = [6, 64]"] ;
941 -> 942 ;
943 [label="billing_postal <= 32625.5\ngini = 0.48\nsamples = 5\nvalue = [2, 3]"] ;
942 -> 943 ;
944 [label="gini = 0.0\nsamples = 3\nvalue = [0, 3]"] ;
943 -> 944 ;
945 [label="gini = 0.0\nsamples = 2\nvalue = [2, 0]"] ;
943 -> 945 ;
946 [label="email_address <= 0.5\ngini = 0.116\nsamples = 65\nvalue = [4, 61]"] ;
942 -> 946 ;
947 [label="billing_postal <= 33887.5\ngini = 0.269\nsamples = 25\nvalue = [4, 21]"] ;
946 -> 947 ;
948 [label="billing_address <= 5892.0\ngini = 0.219\nsamples = 24\nvalue = [3, 21]"] ;
947 -> 948 ;
949 [label="billing_address <= 5029.0\ngini = 0.469\nsamples = 8\nvalue = [3, 5]"] ;
948 -> 949 ;
950 [label="gini = 0.0\nsamples = 3\nvalue = [0, 3]"] ;
949 -> 950 ;
951 [label="ip_address <= 20.5\ngini = 0.48\nsamples = 5\nvalue = [3, 2]"] ;
949 -> 951 ;
952 [label="billing_postal <= 33179.0\ngini = 0.444\nsamples = 3\nvalue = [1, 2]"] ;
951 -> 952 ;
953 [label="gini = 0.0\nsamples = 2\nvalue = [0, 2]"] ;
952 -> 953 ;
954 [label="gini = 0.0\nsamples = 1\nvalue = [1, 0]"] ;
952 -> 954 ;
955 [label="gini = 0.0\nsamples = 2\nvalue = [2, 0]"] ;
951 -> 955 ;
956 [label="gini = 0.0\nsamples = 16\nvalue = [0, 16]"] ;
948 -> 956 ;
957 [label="gini = 0.0\nsamples = 1\nvalue = [1, 0]"] ;
947 -> 957 ;
958 [label="gini = 0.0\nsamples = 40\nvalue = [0, 40]"] ;
946 -> 958 ;
959 [label="gini = 0.0\nsamples = 1\nvalue = [1, 0]"] ;
941 -> 959 ;
960 [label="ip_address <= 105.5\ngini = 0.085\nsamples = 514\nvalue = [23, 491]"] ;
940 -> 960 ;
961 [label="billing_address <= 8330.0\ngini = 0.041\nsamples = 241\nvalue = [5, 236]"] ;
960 -> 961 ;
962 [label="ip_address <= 31.5\ngini = 0.027\nsamples = 220\nvalue = [3, 217]"] ;
961 -> 962 ;
963 [label="billing_postal <= 33014.0\ngini = 0.124\nsamples = 15\nvalue = [1, 14]"] ;
962 -> 963 ;
964 [label="billing_postal <= 32957.0\ngini = 0.375\nsamples = 4\nvalue = [1, 3]"] ;
963 -> 964 ;
965 [label="gini = 0.0\nsamples = 3\nvalue = [0, 3]"] ;
964 -> 965 ;
966 [label="gini = 0.0\nsamples = 1\nvalue = [1, 0]"] ;
964 -> 966 ;
967 [label="gini = 0.0\nsamples = 11\nvalue = [0, 11]"] ;
963 -> 967 ;
968 [label="billing_address <= 4939.0\ngini = 0.019\nsamples = 205\nvalue = [2, 203]"] ;
962 -> 968 ;
969 [label="billing_address <= 4930.0\ngini = 0.1\nsamples = 19\nvalue = [1, 18]"] ;
968 -> 969 ;
970 [label="gini = 0.0\nsamples = 18\nvalue = [0, 18]"] ;
969 -> 970 ;
971 [label="gini = 0.0\nsamples = 1\nvalue = [1, 0]"] ;
969 -> 971 ;
972 [label="billing_postal <= 33601.0\ngini = 0.011\nsamples = 186\nvalue = [1, 185]"] ;
968 -> 972 ;
973 [label="gini = 0.0\nsamples = 128\nvalue = [0, 128]"] ;
972 -> 973 ;
974 [label="billing_postal <= 33603.5\ngini = 0.034\nsamples = 58\nvalue = [1, 57]"] ;
972 -> 974 ;
975 [label="gini = 0.0\nsamples = 1\nvalue = [1, 0]"] ;
974 -> 975 ;
976 [label="gini = 0.0\nsamples = 57\nvalue = [0, 57]"] ;
974 -> 976 ;
977 [label="billing_address <= 8350.5\ngini = 0.172\nsamples = 21\nvalue = [2, 19]"] ;
961 -> 977 ;
978 [label="gini = 0.0\nsamples = 1\nvalue = [1, 0]"] ;
977 -> 978 ;
979 [label="billing_postal <= 32870.0\ngini = 0.095\nsamples = 20\nvalue = [1, 19]"] ;
977 -> 979 ;
980 [label="ip_address <= 90.0\ngini = 0.375\nsamples = 4\nvalue = [1, 3]"] ;
979 -> 980 ;
981 [label="gini = 0.0\nsamples = 3\nvalue = [0, 3]"] ;
980 -> 981 ;
982 [label="gini = 0.0\nsamples = 1\nvalue = [1, 0]"] ;
980 -> 982 ;
983 [label="gini = 0.0\nsamples = 16\nvalue = [0, 16]"] ;
979 -> 983 ;
984 [label="billing_postal <= 33636.0\ngini = 0.123\nsamples = 273\nvalue = [18, 255]"] ;
960 -> 984 ;
985 [label="billing_address <= 4779.0\ngini = 0.079\nsamples = 194\nvalue = [8, 186]"] ;
984 -> 985 ;
986 [label="billing_address <= 4768.0\ngini = 0.346\nsamples = 9\nvalue = [2, 7]"] ;
985 -> 986 ;
987 [label="billing_postal <= 33149.0\ngini = 0.219\nsamples = 8\nvalue = [1, 7]"] ;
986 -> 987 ;
988 [label="gini = 0.0\nsamples = 5\nvalue = [0, 5]"] ;
987 -> 988 ;
989 [label="ip_address <= 133.5\ngini = 0.444\nsamples = 3\nvalue = [1, 2]"] ;
987 -> 989 ;
990 [label="gini = 0.0\nsamples = 2\nvalue = [0, 2]"] ;
989 -> 990 ;
991 [label="gini = 0.0\nsamples = 1\nvalue = [1, 0]"] ;
989 -> 991 ;
992 [label="gini = 0.0\nsamples = 1\nvalue = [1, 0]"] ;
986 -> 992 ;
993 [label="ip_address <= 119.0\ngini = 0.063\nsamples = 185\nvalue = [6, 179]"] ;
985 -> 993 ;
994 [label="billing_postal <= 33083.5\ngini = 0.204\nsamples = 26\nvalue = [3, 23]"] ;
993 -> 994 ;
995 [label="billing_postal <= 32931.5\ngini = 0.444\nsamples = 9\nvalue = [3, 6]"] ;
994 -> 995 ;
996 [label="gini = 0.0\nsamples = 4\nvalue = [0, 4]"] ;
995 -> 996 ;
997 [label="email_address <= 1.5\ngini = 0.48\nsamples = 5\nvalue = [3, 2]"] ;
995 -> 997 ;
998 [label="ip_address <= 109.5\ngini = 0.375\nsamples = 4\nvalue = [3, 1]"] ;
997 -> 998 ;
999 [label="ip_address <= 107.5\ngini = 0.5\nsamples = 2\nvalue = [1, 1]"] ;
998 -> 999 ;
1000 [label="gini = 0.0\nsamples = 1\nvalue = [1, 0]"] ;
999 -> 1000 ;
1001 [label="gini = 0.0\nsamples = 1\nvalue = [0, 1]"] ;
999 -> 1001 ;
1002 [label="gini = 0.0\nsamples = 2\nvalue = [2, 0]"] ;
998 -> 1002 ;
1003 [label="gini = 0.0\nsamples = 1\nvalue = [0, 1]"] ;
997 -> 1003 ;
1004 [label="gini = 0.0\nsamples = 17\nvalue = [0, 17]"] ;
994 -> 1004 ;
1005 [label="billing_postal <= 33127.5\ngini = 0.037\nsamples = 159\nvalue = [3, 156]"] ;
993 -> 1005 ;
1006 [label="gini = 0.0\nsamples = 73\nvalue = [0, 73]"] ;
1005 -> 1006 ;
1007 [label="billing_postal <= 33131.5\ngini = 0.067\nsamples = 86\nvalue = [3, 83]"] ;
1005 -> 1007 ;
1008 [label="gini = 0.0\nsamples = 1\nvalue = [1, 0]"] ;
1007 -> 1008 ;
1009 [label="ip_address <= 167.0\ngini = 0.046\nsamples = 85\nvalue = [2, 83]"] ;
1007 -> 1009 ;
1010 [label="gini = 0.0\nsamples = 59\nvalue = [0, 59]"] ;
1009 -> 1010 ;
1011 [label="ip_address <= 169.5\ngini = 0.142\nsamples = 26\nvalue = [2, 24]"] ;
1009 -> 1011 ;
1012 [label="billing_postal <= 33351.5\ngini = 0.5\nsamples = 2\nvalue = [1, 1]"] ;
1011 -> 1012 ;
1013 [label="gini = 0.0\nsamples = 1\nvalue = [0, 1]"] ;
1012 -> 1013 ;
1014 [label="gini = 0.0\nsamples = 1\nvalue = [1, 0]"] ;
1012 -> 1014 ;
1015 [label="billing_address <= 7901.0\ngini = 0.08\nsamples = 24\nvalue = [1, 23]"] ;
1011 -> 1015 ;
1016 [label="gini = 0.0\nsamples = 20\nvalue = [0, 20]"] ;
1015 -> 1016 ;
1017 [label="ip_address <= 181.5\ngini = 0.375\nsamples = 4\nvalue = [1, 3]"] ;
1015 -> 1017 ;
1018 [label="gini = 0.0\nsamples = 3\nvalue = [0, 3]"] ;
1017 -> 1018 ;
1019 [label="gini = 0.0\nsamples = 1\nvalue = [1, 0]"] ;
1017 -> 1019 ;
1020 [label="billing_postal <= 33642.0\ngini = 0.221\nsamples = 79\nvalue = [10, 69]"] ;
984 -> 1020 ;
1021 [label="gini = 0.0\nsamples = 1\nvalue = [1, 0]"] ;
1020 -> 1021 ;
1022 [label="billing_address <= 7389.0\ngini = 0.204\nsamples = 78\nvalue = [9, 69]"] ;
1020 -> 1022 ;
1023 [label="billing_postal <= 33672.5\ngini = 0.135\nsamples = 55\nvalue = [4, 51]"] ;
1022 -> 1023 ;
1024 [label="billing_postal <= 33667.5\ngini = 0.444\nsamples = 3\nvalue = [1, 2]"] ;
1023 -> 1024 ;
1025 [label="gini = 0.0\nsamples = 2\nvalue = [0, 2]"] ;
1024 -> 1025 ;
1026 [label="gini = 0.0\nsamples = 1\nvalue = [1, 0]"] ;
1024 -> 1026 ;
1027 [label="billing_address <= 6008.5\ngini = 0.109\nsamples = 52\nvalue = [3, 49]"] ;
1023 -> 1027 ;
1028 [label="billing_address <= 5922.0\ngini = 0.18\nsamples = 30\nvalue = [3, 27]"] ;
1027 -> 1028 ;
1029 [label="ip_address <= 121.0\ngini = 0.128\nsamples = 29\nvalue = [2, 27]"] ;
1028 -> 1029 ;
1030 [label="billing_postal <= 33818.5\ngini = 0.5\nsamples = 2\nvalue = [1, 1]"] ;
1029 -> 1030 ;
1031 [label="gini = 0.0\nsamples = 1\nvalue = [0, 1]"] ;
1030 -> 1031 ;
1032 [label="gini = 0.0\nsamples = 1\nvalue = [1, 0]"] ;
1030 -> 1032 ;
1033 [label="billing_postal <= 33728.5\ngini = 0.071\nsamples = 27\nvalue = [1, 26]"] ;
1029 -> 1033 ;
1034 [label="billing_postal <= 33724.0\ngini = 0.245\nsamples = 7\nvalue = [1, 6]"] ;
1033 -> 1034 ;
1035 [label="gini = 0.0\nsamples = 6\nvalue = [0, 6]"] ;
1034 -> 1035 ;
1036 [label="gini = 0.0\nsamples = 1\nvalue = [1, 0]"] ;
1034 -> 1036 ;
1037 [label="gini = 0.0\nsamples = 20\nvalue = [0, 20]"] ;
1033 -> 1037 ;
1038 [label="gini = 0.0\nsamples = 1\nvalue = [1, 0]"] ;
1028 -> 1038 ;
1039 [label="gini = 0.0\nsamples = 22\nvalue = [0, 22]"] ;
1027 -> 1039 ;
1040 [label="billing_address <= 7479.0\ngini = 0.34\nsamples = 23\nvalue = [5, 18]"] ;
1022 -> 1040 ;
1041 [label="gini = 0.0\nsamples = 1\nvalue = [1, 0]"] ;
1040 -> 1041 ;
1042 [label="billing_postal <= 33766.5\ngini = 0.298\nsamples = 22\nvalue = [4, 18]"] ;
1040 -> 1042 ;
1043 [label="billing_postal <= 33671.0\ngini = 0.469\nsamples = 8\nvalue = [3, 5]"] ;
1042 -> 1043 ;
1044 [label="gini = 0.0\nsamples = 3\nvalue = [0, 3]"] ;
1043 -> 1044 ;
1045 [label="billing_postal <= 33689.5\ngini = 0.48\nsamples = 5\nvalue = [3, 2]"] ;
1043 -> 1045 ;
1046 [label="gini = 0.0\nsamples = 2\nvalue = [2, 0]"] ;
1045 -> 1046 ;
1047 [label="billing_address <= 8192.5\ngini = 0.444\nsamples = 3\nvalue = [1, 2]"] ;
1045 -> 1047 ;
1048 [label="gini = 0.0\nsamples = 2\nvalue = [0, 2]"] ;
1047 -> 1048 ;
1049 [label="gini = 0.0\nsamples = 1\nvalue = [1, 0]"] ;
1047 -> 1049 ;
1050 [label="ip_address <= 138.5\ngini = 0.133\nsamples = 14\nvalue = [1, 13]"] ;
1042 -> 1050 ;
1051 [label="email_address <= 1.5\ngini = 0.5\nsamples = 2\nvalue = [1, 1]"] ;
1050 -> 1051 ;
1052 [label="gini = 0.0\nsamples = 1\nvalue = [0, 1]"] ;
1051 -> 1052 ;
1053 [label="gini = 0.0\nsamples = 1\nvalue = [1, 0]"] ;
1051 -> 1053 ;
1054 [label="gini = 0.0\nsamples = 12\nvalue = [0, 12]"] ;
1050 -> 1054 ;
1055 [label="billing_address <= 8621.5\ngini = 0.257\nsamples = 33\nvalue = [5, 28]"] ;
939 -> 1055 ;
1056 [label="billing_postal <= 33962.0\ngini = 0.444\nsamples = 3\nvalue = [2, 1]"] ;
1055 -> 1056 ;
1057 [label="gini = 0.0\nsamples = 2\nvalue = [2, 0]"] ;
1056 -> 1057 ;
1058 [label="gini = 0.0\nsamples = 1\nvalue = [0, 1]"] ;
1056 -> 1058 ;
1059 [label="billing_postal <= 33384.0\ngini = 0.18\nsamples = 30\nvalue = [3, 27]"] ;
1055 -> 1059 ;
1060 [label="billing_postal <= 33312.5\ngini = 0.337\nsamples = 14\nvalue = [3, 11]"] ;
1059 -> 1060 ;
1061 [label="email_address <= 1.5\ngini = 0.26\nsamples = 13\nvalue = [2, 11]"] ;
1060 -> 1061 ;
1062 [label="gini = 0.0\nsamples = 8\nvalue = [0, 8]"] ;
1061 -> 1062 ;
1063 [label="ip_address <= 131.5\ngini = 0.48\nsamples = 5\nvalue = [2, 3]"] ;
1061 -> 1063 ;
1064 [label="billing_postal <= 32864.5\ngini = 0.375\nsamples = 4\nvalue = [1, 3]"] ;
1063 -> 1064 ;
1065 [label="billing_address <= 8724.0\ngini = 0.5\nsamples = 2\nvalue = [1, 1]"] ;
1064 -> 1065 ;
1066 [label="gini = 0.0\nsamples = 1\nvalue = [1, 0]"] ;
1065 -> 1066 ;
1067 [label="gini = 0.0\nsamples = 1\nvalue = [0, 1]"] ;
1065 -> 1067 ;
1068 [label="gini = 0.0\nsamples = 2\nvalue = [0, 2]"] ;
1064 -> 1068 ;
1069 [label="gini = 0.0\nsamples = 1\nvalue = [1, 0]"] ;
1063 -> 1069 ;
1070 [label="gini = 0.0\nsamples = 1\nvalue = [1, 0]"] ;
1060 -> 1070 ;
1071 [label="gini = 0.0\nsamples = 16\nvalue = [0, 16]"] ;
1059 -> 1071 ;
1072 [label="gini = 0.0\nsamples = 1\nvalue = [1, 0]"] ;
938 -> 1072 ;
1073 [label="billing_postal <= 34391.5\ngini = 0.018\nsamples = 218\nvalue = [2, 216]"] ;
937 -> 1073 ;
1074 [label="gini = 0.0\nsamples = 131\nvalue = [0, 131]"] ;
1073 -> 1074 ;
1075 [label="billing_postal <= 34395.5\ngini = 0.045\nsamples = 87\nvalue = [2, 85]"] ;
1073 -> 1075 ;
1076 [label="billing_address <= 6428.5\ngini = 0.444\nsamples = 3\nvalue = [1, 2]"] ;
1075 -> 1076 ;
1077 [label="gini = 0.0\nsamples = 1\nvalue = [0, 1]"] ;
1076 -> 1077 ;
1078 [label="billing_address <= 6996.5\ngini = 0.5\nsamples = 2\nvalue = [1, 1]"] ;
1076 -> 1078 ;
1079 [label="gini = 0.0\nsamples = 1\nvalue = [1, 0]"] ;
1078 -> 1079 ;
1080 [label="gini = 0.0\nsamples = 1\nvalue = [0, 1]"] ;
1078 -> 1080 ;
1081 [label="billing_address <= 5184.0\ngini = 0.024\nsamples = 84\nvalue = [1, 83]"] ;
1075 -> 1081 ;
1082 [label="billing_address <= 5182.5\ngini = 0.111\nsamples = 17\nvalue = [1, 16]"] ;
1081 -> 1082 ;
1083 [label="gini = 0.0\nsamples = 16\nvalue = [0, 16]"] ;
1082 -> 1083 ;
1084 [label="gini = 0.0\nsamples = 1\nvalue = [1, 0]"] ;
1082 -> 1084 ;
1085 [label="gini = 0.0\nsamples = 67\nvalue = [0, 67]"] ;
1081 -> 1085 ;
1086 [label="billing_postal <= 34543.5\ngini = 0.135\nsamples = 206\nvalue = [15, 191]"] ;
936 -> 1086 ;
1087 [label="email_address <= 0.5\ngini = 0.444\nsamples = 6\nvalue = [2, 4]"] ;
1086 -> 1087 ;
1088 [label="gini = 0.0\nsamples = 2\nvalue = [2, 0]"] ;
1087 -> 1088 ;
1089 [label="gini = 0.0\nsamples = 4\nvalue = [0, 4]"] ;
1087 -> 1089 ;
1090 [label="ip_address <= 160.5\ngini = 0.122\nsamples = 200\nvalue = [13, 187]"] ;
1086 -> 1090 ;
1091 [label="ip_address <= 158.5\ngini = 0.15\nsamples = 159\nvalue = [13, 146]"] ;
1090 -> 1091 ;
1092 [label="billing_postal <= 34748.0\ngini = 0.14\nsamples = 158\nvalue = [12, 146]"] ;
1091 -> 1092 ;
1093 [label="billing_postal <= 34734.5\ngini = 0.205\nsamples = 95\nvalue = [11, 84]"] ;
1092 -> 1093 ;
1094 [label="billing_address <= 7457.0\ngini = 0.175\nsamples = 93\nvalue = [9, 84]"] ;
1093 -> 1094 ;
1095 [label="billing_address <= 7428.0\ngini = 0.239\nsamples = 65\nvalue = [9, 56]"] ;
1094 -> 1095 ;
1096 [label="ip_address <= 80.5\ngini = 0.177\nsamples = 61\nvalue = [6, 55]"] ;
1095 -> 1096 ;
1097 [label="billing_postal <= 34571.5\ngini = 0.057\nsamples = 34\nvalue = [1, 33]"] ;
1096 -> 1097 ;
1098 [label="email_address <= 1.5\ngini = 0.375\nsamples = 4\nvalue = [1, 3]"] ;
1097 -> 1098 ;
1099 [label="gini = 0.0\nsamples = 2\nvalue = [0, 2]"] ;
1098 -> 1099 ;
1100 [label="ip_address <= 52.5\ngini = 0.5\nsamples = 2\nvalue = [1, 1]"] ;
1098 -> 1100 ;
1101 [label="gini = 0.0\nsamples = 1\nvalue = [1, 0]"] ;
1100 -> 1101 ;
1102 [label="gini = 0.0\nsamples = 1\nvalue = [0, 1]"] ;
1100 -> 1102 ;
1103 [label="gini = 0.0\nsamples = 30\nvalue = [0, 30]"] ;
1097 -> 1103 ;
1104 [label="billing_address <= 5963.0\ngini = 0.302\nsamples = 27\nvalue = [5, 22]"] ;
1096 -> 1104 ;
1105 [label="ip_address <= 140.0\ngini = 0.486\nsamples = 12\nvalue = [5, 7]"] ;
1104 -> 1105 ;
1106 [label="billing_postal <= 34706.5\ngini = 0.494\nsamples = 9\nvalue = [5, 4]"] ;
1105 -> 1106 ;
1107 [label="billing_address <= 5690.0\ngini = 0.469\nsamples = 8\nvalue = [5, 3]"] ;
1106 -> 1107 ;
1108 [label="billing_address <= 5466.5\ngini = 0.48\nsamples = 5\nvalue = [2, 3]"] ;
1107 -> 1108 ;
1109 [label="email_address <= 0.5\ngini = 0.444\nsamples = 3\nvalue = [2, 1]"] ;
1108 -> 1109 ;
1110 [label="gini = 0.0\nsamples = 1\nvalue = [0, 1]"] ;
1109 -> 1110 ;
1111 [label="gini = 0.0\nsamples = 2\nvalue = [2, 0]"] ;
1109 -> 1111 ;
1112 [label="gini = 0.0\nsamples = 2\nvalue = [0, 2]"] ;
1108 -> 1112 ;
1113 [label="gini = 0.0\nsamples = 3\nvalue = [3, 0]"] ;
1107 -> 1113 ;
1114 [label="gini = 0.0\nsamples = 1\nvalue = [0, 1]"] ;
1106 -> 1114 ;
1115 [label="gini = 0.0\nsamples = 3\nvalue = [0, 3]"] ;
1105 -> 1115 ;
1116 [label="gini = 0.0\nsamples = 15\nvalue = [0, 15]"] ;
1104 -> 1116 ;
1117 [label="email_address <= 1.5\ngini = 0.375\nsamples = 4\nvalue = [3, 1]"] ;
1095 -> 1117 ;
1118 [label="gini = 0.0\nsamples = 3\nvalue = [3, 0]"] ;
1117 -> 1118 ;
1119 [label="gini = 0.0\nsamples = 1\nvalue = [0, 1]"] ;
1117 -> 1119 ;
1120 [label="gini = 0.0\nsamples = 28\nvalue = [0, 28]"] ;
1094 -> 1120 ;
1121 [label="gini = 0.0\nsamples = 2\nvalue = [2, 0]"] ;
1093 -> 1121 ;
1122 [label="ip_address <= 153.0\ngini = 0.031\nsamples = 63\nvalue = [1, 62]"] ;
1092 -> 1122 ;
1123 [label="gini = 0.0\nsamples = 61\nvalue = [0, 61]"] ;
1122 -> 1123 ;
1124 [label="billing_postal <= 34847.0\ngini = 0.5\nsamples = 2\nvalue = [1, 1]"] ;
1122 -> 1124 ;
1125 [label="gini = 0.0\nsamples = 1\nvalue = [0, 1]"] ;
1124 -> 1125 ;
1126 [label="gini = 0.0\nsamples = 1\nvalue = [1, 0]"] ;
1124 -> 1126 ;
1127 [label="gini = 0.0\nsamples = 1\nvalue = [1, 0]"] ;
1091 -> 1127 ;
1128 [label="gini = 0.0\nsamples = 41\nvalue = [0, 41]"] ;
1090 -> 1128 ;
1129 [label="billing_postal <= 34901.5\ngini = 0.175\nsamples = 175\nvalue = [17, 158]"] ;
899 -> 1129 ;
1130 [label="billing_address <= 6495.5\ngini = 0.168\nsamples = 173\nvalue = [16, 157]"] ;
1129 -> 1130 ;
1131 [label="billing_postal <= 33831.5\ngini = 0.078\nsamples = 74\nvalue = [3, 71]"] ;
1130 -> 1131 ;
1132 [label="gini = 0.0\nsamples = 41\nvalue = [0, 41]"] ;
1131 -> 1132 ;
1133 [label="billing_postal <= 33873.0\ngini = 0.165\nsamples = 33\nvalue = [3, 30]"] ;
1131 -> 1133 ;
1134 [label="gini = 0.0\nsamples = 1\nvalue = [1, 0]"] ;
1133 -> 1134 ;
1135 [label="ip_address <= 204.0\ngini = 0.117\nsamples = 32\nvalue = [2, 30]"] ;
1133 -> 1135 ;
1136 [label="billing_postal <= 34234.5\ngini = 0.444\nsamples = 6\nvalue = [2, 4]"] ;
1135 -> 1136 ;
1137 [label="gini = 0.0\nsamples = 2\nvalue = [2, 0]"] ;
1136 -> 1137 ;
1138 [label="gini = 0.0\nsamples = 4\nvalue = [0, 4]"] ;
1136 -> 1138 ;
1139 [label="gini = 0.0\nsamples = 26\nvalue = [0, 26]"] ;
1135 -> 1139 ;
1140 [label="billing_address <= 6497.0\ngini = 0.228\nsamples = 99\nvalue = [13, 86]"] ;
1130 -> 1140 ;
1141 [label="gini = 0.0\nsamples = 1\nvalue = [1, 0]"] ;
1140 -> 1141 ;
1142 [label="ip_address <= 198.5\ngini = 0.215\nsamples = 98\nvalue = [12, 86]"] ;
1140 -> 1142 ;
1143 [label="billing_postal <= 33903.0\ngini = 0.444\nsamples = 9\nvalue = [3, 6]"] ;
1142 -> 1143 ;
1144 [label="billing_address <= 7729.5\ngini = 0.5\nsamples = 6\nvalue = [3, 3]"] ;
1143 -> 1144 ;
1145 [label="gini = 0.0\nsamples = 2\nvalue = [0, 2]"] ;
1144 -> 1145 ;
1146 [label="billing_postal <= 32502.5\ngini = 0.375\nsamples = 4\nvalue = [3, 1]"] ;
1144 -> 1146 ;
1147 [label="gini = 0.0\nsamples = 1\nvalue = [0, 1]"] ;
1146 -> 1147 ;
1148 [label="gini = 0.0\nsamples = 3\nvalue = [3, 0]"] ;
1146 -> 1148 ;
1149 [label="gini = 0.0\nsamples = 3\nvalue = [0, 3]"] ;
1143 -> 1149 ;
1150 [label="billing_address <= 8295.0\ngini = 0.182\nsamples = 89\nvalue = [9, 80]"] ;
1142 -> 1150 ;
1151 [label="billing_address <= 8266.0\ngini = 0.233\nsamples = 67\nvalue = [9, 58]"] ;
1150 -> 1151 ;
1152 [label="ip_address <= 214.5\ngini = 0.213\nsamples = 66\nvalue = [8, 58]"] ;
1151 -> 1152 ;
1153 [label="billing_postal <= 33056.0\ngini = 0.127\nsamples = 44\nvalue = [3, 41]"] ;
1152 -> 1153 ;
1154 [label="billing_postal <= 32953.5\ngini = 0.26\nsamples = 13\nvalue = [2, 11]"] ;
1153 -> 1154 ;
1155 [label="ip_address <= 200.5\ngini = 0.153\nsamples = 12\nvalue = [1, 11]"] ;
1154 -> 1155 ;
1156 [label="billing_address <= 6865.0\ngini = 0.5\nsamples = 2\nvalue = [1, 1]"] ;
1155 -> 1156 ;
1157 [label="gini = 0.0\nsamples = 1\nvalue = [1, 0]"] ;
1156 -> 1157 ;
1158 [label="gini = 0.0\nsamples = 1\nvalue = [0, 1]"] ;
1156 -> 1158 ;
1159 [label="gini = 0.0\nsamples = 10\nvalue = [0, 10]"] ;
1155 -> 1159 ;
1160 [label="gini = 0.0\nsamples = 1\nvalue = [1, 0]"] ;
1154 -> 1160 ;
1161 [label="ip_address <= 212.5\ngini = 0.062\nsamples = 31\nvalue = [1, 30]"] ;
1153 -> 1161 ;
